2009 128
</s> 0.003127 0.003453 -0.002992 -0.002561 0.001068 0.002360 0.000735 0.000165 -0.002815 0.001733 -0.003403 0.000976 -0.000587 -0.000748 -0.002590 -0.001470 0.002015 0.002364 0.002320 0.001248 0.001207 -0.002971 -0.003200 0.003883 0.002970 0.002414 -0.000472 0.003137 -0.000387 0.000574 -0.000117 -0.002331 0.001025 -0.001045 -0.002989 0.003714 0.003421 -0.000856 -0.000177 0.000398 -0.002842 -0.003131 0.003558 0.000049 -0.002017 -0.002377 -0.002403 0.001326 0.000157 0.001040 -0.003292 -0.002975 -0.000102 0.000893 0.001992 -0.002477 0.003187 0.000724 0.000875 -0.000475 0.002333 -0.001787 -0.001639 0.001686 -0.000588 0.000805 0.001410 -0.003194 -0.001549 0.002276 0.003306 0.003072 -0.002380 -0.001647 -0.000710 0.001564 -0.002960 0.002342 0.002178 -0.001249 -0.001212 -0.001749 0.003304 0.003056 -0.000922 0.003293 0.003766 0.001418 0.003893 -0.002431 -0.001197 -0.001646 -0.002271 0.002199 0.001234 0.000332 -0.001714 0.001191 0.002390 0.000151 0.001781 -0.003869 0.003371 0.000375 -0.001431 -0.001628 -0.000584 -0.002293 -0.003414 -0.002216 0.003341 -0.001383 -0.002093 0.001810 -0.001331 0.003716 -0.001254 -0.003585 0.002122 -0.000058 -0.002726 0.000762 0.001127 -0.000376 0.001425 -0.003092 0.000688 0.001419 
318 0.083872 0.227835 -0.114364 -0.384289 0.041600 -0.090712 -0.163825 -1.074704 0.097753 -0.251765 -0.316104 -0.505471 0.061668 0.227403 -0.361519 -0.282521 -0.394664 0.172658 0.387043 -0.158183 -0.612357 0.224802 -0.359067 0.105148 -0.527769 -0.365013 -0.304029 0.228827 -0.192630 -0.239978 -0.071730 -0.097310 0.123547 0.036845 0.323122 -0.648965 0.133364 0.511243 0.317077 0.002430 0.120561 0.216948 -0.416950 -0.474851 -0.248888 -0.025132 -0.136328 0.049389 -0.507167 -0.310835 0.370171 -0.241408 -0.326059 -0.147238 -0.218737 -0.229728 0.202179 -0.379606 0.134023 0.471605 0.233928 0.135340 0.347041 0.134372 -0.571142 -0.005902 -0.359265 -0.182753 -0.098206 -0.283604 -0.256629 0.038331 0.043557 -0.325646 0.074917 0.301934 -0.297594 0.127930 -0.088227 -0.033507 -0.509352 0.402922 -0.385440 -0.388455 0.206181 -0.420490 -0.194819 0.645057 0.899763 0.213827 -0.162035 0.147037 -0.395220 -0.219001 0.319393 0.396498 0.470588 0.411483 0.281316 -0.363580 -0.695020 0.973539 -0.419775 -0.066661 -0.205622 0.041632 -0.113202 -0.220597 0.234799 -0.362553 -0.344383 -0.041662 -0.362427 0.262120 0.171623 -0.259587 0.128594 0.372963 0.111230 0.150147 -0.374640 0.255929 -0.051588 -0.065809 -0.268461 -0.122872 0.027691 -0.226414 
296 0.230165 0.181329 -0.091897 0.054685 0.363670 -0.107435 0.050171 -0.189533 -0.010210 -0.146571 -0.024787 -0.286972 0.556579 0.324965 -0.576773 0.164538 0.302119 -0.291935 0.405217 -0.595859 -0.304933 0.015085 -0.729441 -0.224406 -0.275093 0.080815 -0.054586 -0.045609 0.367378 0.247721 0.092085 -0.204060 0.294060 -0.203723 0.152367 -0.313312 0.108368 -0.011685 0.344145 -0.301205 0.270819 0.337473 -0.204674 -0.578730 -0.346575 0.210211 0.102595 0.152431 0.205583 0.172664 0.355060 -0.055436 -0.380827 0.106568 -0.366393 0.258273 -0.055695 -0.302303 -0.103509 0.506684 0.349648 -0.518485 0.030088 0.504870 -0.072413 0.369236 -0.298346 -0.779399 -0.287424 -0.415309 0.041609 -0.128128 -0.114560 -0.379986 -0.158596 0.136060 -0.065098 0.099390 -0.024811 0.376975 -0.205227 0.030469 -0.994125 -0.139899 0.148257 -0.446407 -0.566158 0.136575 1.191754 0.067607 -0.040993 -0.252592 -0.182704 -0.475662 0.225324 -0.287002 -0.072681 0.509181 0.091149 -0.237096 -0.435525 0.785972 -0.254941 -0.029376 -0.079634 0.015954 -0.241110 0.051413 0.514454 0.118652 0.186009 0.092209 -0.160109 0.365190 0.206619 0.041821 0.002531 0.151592 -0.487786 -0.222499 -0.172274 0.012122 0.249989 -0.306525 -0.049740 -0.042230 -0.103880 0.266060 
356 -0.174679 0.141900 -0.271920 0.174735 -0.313618 -0.079408 0.220937 -1.005541 0.422203 0.223225 0.518113 0.105491 0.028255 0.173954 -0.508692 -0.279189 -0.363467 0.088589 0.265586 -0.199772 -0.047007 -0.022240 -0.478342 0.465540 -0.570247 0.472665 -0.179619 0.112490 0.161745 0.389395 -0.377696 0.300323 -0.150200 -0.264469 0.726039 -0.274615 -0.157622 0.766622 0.570339 0.019386 0.448063 0.144221 0.027489 -0.424898 -0.225297 -0.188740 0.114446 -0.350274 0.113343 0.248052 0.376102 -0.247782 -0.246074 0.028445 -0.155774 -0.122037 -0.129397 -0.133580 0.331231 -0.110837 0.483360 -0.472308 0.192887 -0.240730 -0.156126 0.499701 -0.526279 -0.104770 0.008304 -0.206228 -0.561528 -0.376306 0.152488 -0.044188 -0.424285 -0.323443 -0.280905 -0.078231 0.076276 0.225666 -0.237848 0.201118 -0.549948 0.100139 0.341866 -0.094102 -0.037065 0.243207 0.986472 0.530136 -0.510420 0.200437 -0.551838 -0.267911 0.480757 0.485200 0.286680 0.536499 -0.263313 -0.445331 0.015460 0.452519 0.047988 0.170201 -0.075490 -0.265705 -0.275479 -0.090296 -0.397845 0.322984 0.319704 0.280834 0.064474 0.489439 0.197198 -0.296986 0.447966 0.339383 -0.263591 0.155494 -0.444696 0.045572 0.349807 0.062349 0.098188 0.020276 0.075588 -0.004046 
593 -0.257144 0.040267 -0.147636 -0.393683 0.200744 0.138552 -0.317513 -1.083377 0.251568 -0.058378 -0.128708 -0.599560 0.270359 0.523678 -0.123638 -0.135938 -0.119262 0.306246 0.442286 -0.047717 -0.284648 0.296250 -0.588437 -0.303590 -0.369585 -0.326193 0.249129 -0.178437 -0.118672 -0.322863 0.188353 0.867152 0.516843 -0.051681 0.045944 -0.620972 -0.271198 0.331154 -0.412660 0.073159 -0.041141 0.205152 -0.151180 -0.029860 0.132856 -0.329115 -0.568477 0.424268 -0.204679 -0.312746 -0.070615 0.235381 -0.412974 -0.205978 0.186422 -0.368765 0.249881 0.010557 0.566203 -0.043931 0.183139 -0.281388 0.437725 0.164788 0.056080 0.476026 -0.617294 -0.113411 0.398657 0.146009 -0.185275 0.191593 -0.108954 0.267436 -0.021367 -0.649542 -0.109891 0.568142 0.190919 0.069850 -0.251761 -0.014757 -0.614339 -0.003894 0.076734 -0.010303 -0.129169 -0.148141 0.931383 -0.035264 -0.070314 -0.330614 -0.814290 -0.072151 -0.770926 0.108238 0.236662 0.655724 0.063608 -0.027546 -0.536617 0.680710 -0.023617 -0.061897 0.659301 0.264283 -0.298585 0.262835 0.244288 0.151589 0.194937 -0.282055 0.023900 0.460135 0.315791 0.321862 0.052617 -0.011119 0.170718 0.217771 -0.573568 0.412545 0.306718 0.122191 0.167972 -0.108523 -0.055738 0.085822 
527 0.086060 0.847894 -0.369115 -0.499244 0.587166 0.234452 0.050407 -1.221496 0.296273 0.136660 -0.386950 -0.194474 0.594116 0.057252 -0.716960 0.071717 0.200844 0.323257 0.162042 -0.157126 -0.384252 0.191073 -0.313628 0.026681 -0.239992 -0.336625 -0.445912 0.170637 0.102157 0.129568 -0.368881 0.556003 0.201009 -0.409778 0.199066 -0.198150 -0.386720 0.617157 -0.082046 0.198923 -0.452412 -0.076170 -0.073782 -0.046725 -0.120598 -0.439429 -0.242498 -0.009643 -0.152236 0.149063 0.607665 0.082126 -0.330346 0.018562 -0.005501 0.161375 -0.230551 0.073360 -0.082849 0.012788 0.350042 -0.268028 0.208655 0.700698 0.044867 0.218083 -0.821280 -0.394315 -0.117182 -0.233342 -0.345652 0.167750 -0.040491 0.230354 0.141495 -0.525116 0.263739 0.150588 -0.223200 -0.280930 -0.347256 0.066801 -0.260104 0.077756 0.160429 0.063751 -0.111726 0.213624 0.888537 0.386112 -0.350915 0.061530 -0.231752 0.309492 -0.493222 -0.091654 0.043096 0.204958 0.497867 0.495582 0.153872 0.419481 -0.153866 0.078752 0.563367 0.058375 0.264312 0.587014 0.196363 -0.000663 -0.165574 -0.058368 -0.484411 0.155312 0.531085 -0.375102 0.129360 -0.243925 0.001900 0.032231 -0.177533 0.061702 0.277290 -0.196341 -0.214104 -0.473650 -0.070185 -0.274095 
2571 0.165391 0.460693 -0.184584 -0.495790 -0.627350 -0.257433 -0.240824 -0.456191 0.255675 -0.101271 -0.089803 -0.591840 0.452129 0.501304 0.559390 -0.609762 -0.283150 0.839773 0.044004 0.294262 0.305184 -0.381320 -0.224747 -0.078082 0.191028 0.212257 -0.011482 -0.004614 0.029962 0.265874 -0.642784 0.000914 0.158519 0.041918 0.107364 -0.473877 0.591551 -0.273647 0.162757 -0.379571 0.643160 -0.317042 -0.439248 0.027384 0.429531 0.343507 0.416866 0.021698 0.226552 -0.147498 0.323157 0.180473 -0.425451 -0.533022 -0.262244 0.161795 -0.555704 0.113269 0.188777 -0.303839 0.581094 0.643267 -0.411415 0.307449 -0.020238 -0.327408 -0.044692 0.367620 0.027272 -0.256998 -0.126090 -0.000779 0.110613 -0.239981 -0.173275 -0.678597 0.335265 -0.529504 -0.025930 -0.381992 0.196848 -0.300177 -0.334628 -0.286582 -0.015018 -0.020836 0.230496 -0.214934 0.440151 0.261203 0.398284 -0.228684 -0.443635 -0.057751 -0.120993 -0.320144 0.268183 0.477208 0.533304 -0.065761 -0.078989 0.581853 -0.266317 -0.339303 0.510112 -0.159493 -0.613306 0.041356 0.369642 0.360792 -0.168422 -0.275340 -0.493491 0.038190 -0.265591 -0.348131 -0.442100 -0.115618 -0.007888 -0.157377 0.615054 -0.090712 0.045444 -0.166615 -0.458033 0.333339 -0.287910 -0.288931 
260 0.073774 0.053007 0.089098 0.345590 0.111912 0.306686 0.272627 -0.480704 0.074936 -0.469163 -0.406089 -0.267941 0.276698 0.335200 -0.309800 0.087879 -0.022856 0.113366 0.328085 -0.123545 -0.398427 -0.098784 -0.588285 0.044070 -0.113381 -0.009923 0.175619 -0.261661 0.352290 0.187872 0.228357 -0.133341 0.322986 -0.289443 -0.324433 -0.773821 0.180783 0.745592 0.137231 -0.216060 0.115414 0.176857 -0.168634 -0.221220 -0.118649 0.189870 0.048178 -0.042323 0.159731 0.066613 0.257274 -0.014867 -0.268925 0.319692 0.252225 -0.445828 -0.344346 -0.148803 -0.079214 0.488715 0.612891 0.159824 0.282420 0.523162 -0.025750 0.429881 -0.062082 -0.655554 0.151419 0.257659 -0.060696 -0.384954 -0.535905 0.040406 -0.062961 0.119138 -0.145044 -0.590019 0.013431 0.104100 -0.244019 0.489008 -0.788204 -0.113308 -0.339220 -0.615887 -0.533061 -0.012747 1.000088 0.335469 -0.590702 0.111111 -0.312572 -0.305473 -0.405683 0.358851 0.695950 0.521124 -0.175415 0.409026 -0.227130 0.746730 -0.001898 0.170703 -0.218215 -0.074102 -0.002853 -0.224293 0.345019 -0.201152 -0.024626 0.184081 -0.211488 0.303541 0.159090 0.216452 0.401319 -0.056180 -0.736664 -0.212690 -0.083327 0.511322 0.390828 0.244222 -0.309916 -0.445031 0.251769 0.068821 
858 0.092755 0.609048 -0.491210 -0.148192 -0.151473 0.438808 0.269950 -1.722171 0.540423 -0.211797 0.295857 -0.699730 0.228607 0.254022 0.281915 0.316989 -0.009677 -0.208796 0.410694 -0.307039 -0.013613 0.002549 -0.226749 0.255405 -0.198491 -0.080320 0.378548 0.001247 -0.205338 0.061872 -0.209498 0.239862 -0.062571 0.159281 -0.388754 -0.228788 0.182443 -0.366843 0.133379 -0.030894 -0.203583 0.165587 -0.210671 0.284374 -0.196602 0.081001 0.265009 -0.155957 0.414051 -0.183743 0.580147 0.183917 -0.415998 -0.238512 -0.214398 -0.236176 0.254350 0.006479 -0.190071 0.148356 0.238326 0.126391 -0.100356 -0.102838 0.296584 0.050866 -0.119061 -0.289918 0.355150 0.269056 -0.260639 0.435321 -0.421207 -0.246748 0.343070 -0.001726 0.081409 0.302025 0.095449 0.074869 0.276406 -0.071245 -0.243454 -0.093589 -0.280129 0.249369 -0.524936 0.402625 1.071329 -0.004933 0.006913 -0.229364 -0.626506 0.248339 -0.817321 0.298014 0.093996 0.686072 0.235878 0.136314 -0.554924 0.405404 -0.515840 0.153207 -0.052424 -0.113301 0.264836 0.369000 0.237378 -0.038875 0.179342 0.112390 0.054273 0.015111 0.253935 0.165012 -0.149409 0.063290 -0.161897 0.396179 -0.451695 0.061740 -0.058926 0.283949 0.332498 -0.048106 0.343705 0.028068 
110 0.036178 -0.062999 -0.494041 -0.024741 0.422528 0.241646 0.188369 -0.699266 -0.158064 -0.166756 -0.131393 -0.642287 -0.091081 0.556597 -0.327474 0.065918 0.041844 0.407402 0.359126 -0.165522 -0.872523 -0.124399 -0.295002 -0.272677 0.130424 0.078437 -0.279053 -0.255766 0.304329 -0.086654 0.246253 0.113969 -0.223555 0.142127 0.043573 -0.525563 -0.319550 0.320523 0.432048 0.039903 -0.112540 0.376263 -0.069724 -0.762712 -0.117692 0.138272 0.344370 0.010049 -0.113107 0.307236 0.398180 0.244309 -0.090292 0.354542 -0.178679 -0.594469 0.015610 0.274755 -0.194747 0.117212 0.095223 -0.141686 0.577579 0.268265 0.375925 0.026290 -0.104248 -0.411226 -0.137210 -0.142518 -0.075823 -0.289314 -0.358026 0.466648 0.074115 0.423972 -0.143354 -0.515210 0.156766 -0.251868 0.069294 0.258242 -1.039867 0.228926 -0.174695 -0.620017 -0.144929 0.016634 0.787174 0.553496 -0.093258 -0.364670 0.137299 -0.744183 -0.123500 0.082667 0.139926 0.240329 0.298844 -0.215178 0.391706 0.986966 0.224309 -0.751299 -0.155128 0.064893 -0.287345 -0.155616 0.123292 -0.108444 0.315778 0.296796 0.087939 -0.116865 0.236447 0.116312 0.339141 0.383430 -0.095693 0.306929 0.233363 -0.229512 0.547691 -0.425855 0.098715 0.306174 -0.013756 0.216540 
2959 0.223370 0.589370 -0.330759 -0.498726 -0.237902 -0.848135 0.113217 -0.818575 0.176045 0.102262 -0.379070 0.068174 0.067820 0.683636 0.468409 0.210739 0.478289 0.673911 0.616430 0.110561 0.430476 -0.129984 -0.462503 -0.381303 0.667136 0.222188 -0.832667 0.275663 0.317986 0.169986 -0.156167 0.079668 0.148108 0.084596 -0.053903 -0.507854 -0.302398 0.032452 0.379155 -0.334320 0.279062 -0.236482 0.083737 -0.344280 0.198123 -0.113294 0.201707 0.053713 0.042129 -0.569096 0.153227 0.424044 -1.114418 -0.047585 -0.229020 0.177534 -0.982798 -0.440181 -0.067028 -0.469621 0.648232 -0.113886 0.151519 0.292115 0.550683 0.203974 0.014980 0.549624 -0.019435 -0.406510 -0.081393 0.189637 0.294690 -0.306112 0.310365 -0.360729 0.476531 -0.238220 -0.105523 -0.364497 0.313948 -0.045696 -0.240451 -0.490150 0.072580 0.216914 -0.190260 0.584404 0.387441 -0.222062 0.436636 -0.272815 0.199712 -0.298922 0.237916 0.198637 0.573306 0.296335 0.013634 0.702167 -0.487632 0.185349 0.198732 -0.041546 0.510159 -0.124268 -0.215000 0.439292 0.625353 -0.206229 -0.227359 0.414115 0.484694 -0.126588 -0.019030 -0.020233 0.027074 -0.393685 -0.201130 -0.012815 0.428181 -0.371846 0.197049 -0.295488 0.100065 -0.062721 -0.463583 -0.140661 
2858 -0.303916 0.557574 -0.124806 -0.303538 0.249635 -0.732031 0.134640 -0.649345 -0.118950 -0.077024 -0.119205 -0.454799 -0.196850 0.252530 -0.539915 0.244152 0.597146 0.740063 0.369419 0.108958 0.533414 0.005606 -0.868787 -0.005159 0.405397 -0.125699 -0.121494 -0.060717 0.730810 0.549444 -0.359478 -0.114250 -0.394260 0.188404 0.148416 0.149432 0.122898 0.240569 -0.074031 0.124394 0.314394 -0.388547 -0.735545 -0.052262 -0.340029 -0.216463 -0.317836 0.175912 0.404974 -0.218992 -0.108406 0.830427 -0.331745 0.091264 0.414558 -0.227864 -0.528456 -0.018370 0.028497 0.298955 0.393417 -0.067265 -0.369989 0.578184 0.410195 -0.117009 -0.106595 -0.152745 0.277352 0.360209 0.278971 -0.029181 -0.493638 -0.502901 -0.296017 0.136226 0.317138 0.072974 -0.118236 -0.310815 -0.109110 0.345277 -0.687661 -0.210906 0.015189 0.313130 0.448743 0.946495 0.269769 0.174747 0.544814 -0.395236 -0.191646 -0.116000 -0.149733 -0.028005 0.636515 -0.009323 -0.128477 -0.316085 -0.437975 0.342069 0.277030 0.281751 0.314629 -0.209066 -0.461630 0.452843 -0.440589 0.000994 -0.285397 0.051873 -0.193549 -0.331448 -0.304714 -0.083135 -0.364938 0.580498 -0.006718 -0.179367 -0.001308 -0.048941 -0.129015 -0.154900 0.359999 -0.016910 -0.105597 -0.300290 
50 -0.140064 0.066118 -0.471583 -0.621438 0.033427 0.021082 0.056668 -0.386180 -0.045847 -0.066317 0.076649 -0.565229 0.260867 0.405067 -0.018527 -0.026973 -0.160607 -0.330324 0.657533 -0.117601 -0.592502 -0.190299 -0.105976 0.092108 0.144997 0.403524 -0.556565 -0.035144 0.239891 0.106906 -0.479254 0.168714 -0.143940 0.044213 0.262245 -0.799265 -0.104350 0.102348 0.468962 -0.018670 -0.097653 0.169434 -0.410640 -0.393263 0.142591 0.007602 0.140069 0.065620 0.327668 -0.322225 0.022545 -0.006222 -0.328409 0.478907 -0.072926 -0.214017 0.071214 0.345718 -0.477404 0.463524 -0.227886 -0.036108 0.207353 0.416450 0.107206 -0.008109 -0.590939 -0.524697 -0.344263 -0.232015 0.077977 -0.251991 -0.216947 0.651799 0.490887 0.435761 0.312900 0.023009 -0.232234 -0.315701 -0.482264 0.335178 -0.982778 -0.435864 0.028658 -0.424153 -0.394533 -0.590819 1.169259 0.173379 -0.726853 -0.112170 -0.165133 0.231885 0.287532 -0.013055 0.070548 -0.062363 -0.406930 -0.050687 0.290872 0.901490 0.413060 0.104961 0.474782 0.371100 0.090047 -0.347331 0.121807 -0.114142 0.254211 0.235210 -0.292561 0.299307 -0.083789 0.074461 0.299204 0.255407 -0.506937 0.544390 0.245373 0.160762 0.138427 0.063779 0.055253 -0.062889 0.148168 0.318522 
1196 -0.036736 0.349184 -0.301638 -0.517048 0.251264 0.502482 0.305078 -1.277817 0.575028 0.236719 -0.056509 -0.165442 0.107726 0.318801 0.292766 -0.091908 -0.177033 -0.396926 1.154090 -0.168887 -0.015599 -0.290198 0.123432 -0.827600 -0.259535 -0.077341 -0.018363 -0.545529 0.396672 0.324775 -0.377815 -0.395163 -0.181051 -0.055910 0.296288 -0.211823 -0.008167 0.419540 -0.278443 -0.064110 -0.394083 0.009518 0.144727 0.376799 -0.140835 0.445358 -0.063404 0.474243 0.090736 0.011077 0.559787 0.293662 -0.118349 -0.129407 -0.127263 -0.194518 -0.197831 -0.053849 0.393386 0.048660 -0.107239 -0.080797 0.045293 -0.050152 0.121188 0.793644 -0.285600 -0.095851 0.608523 -0.149566 -0.421166 0.332896 0.246076 -0.256694 -0.721280 0.004174 -0.044165 0.174577 0.207983 -0.120088 -0.069251 -0.180012 -0.955036 -0.088737 -0.126061 0.078671 0.209515 0.020601 0.850938 0.407894 -0.080945 0.021757 -0.045626 0.633752 0.015018 -0.172460 0.241249 -0.091743 -0.450600 0.484285 -0.404716 0.824750 -0.125497 -0.489809 0.446181 -0.730929 -0.285563 0.133666 0.036960 -0.125902 0.475364 -0.830456 0.109284 0.133049 0.198459 0.772502 0.240294 -0.005817 -0.151896 0.088478 -0.306294 -0.168976 0.176816 -0.038809 0.224695 -0.050793 -0.275255 -0.395383 
1198 0.003981 0.349982 -0.245326 -0.185468 0.232086 0.152731 -0.040105 -1.403611 0.426637 -0.274182 0.193557 -0.624580 0.015409 0.263183 0.755261 0.102224 -0.082757 0.161434 1.202624 0.139776 0.008597 -0.183984 -0.601780 -0.376268 0.434835 -0.316393 -0.057548 -0.081412 -0.122541 0.062842 0.050459 -0.355501 0.022928 0.066385 0.530469 0.342563 0.352556 0.161129 -0.105139 0.097758 -0.049077 -0.050982 0.058120 0.055346 0.599914 0.016696 -0.193260 -0.150190 0.513310 0.273133 0.214431 0.082580 0.031157 0.070790 -0.049825 -0.101218 -0.155483 -0.307202 -0.223214 0.308018 -0.186613 -0.381002 -0.167058 -0.402215 0.257089 1.086404 -0.209481 0.407522 0.123179 0.279105 -0.104497 0.147495 0.028700 0.006117 -0.031472 -0.053036 0.076681 -0.046021 -0.208720 -0.171113 -0.284678 -0.180221 -0.804986 0.156080 -0.041523 -0.135573 0.462636 0.286163 0.840676 -0.033234 -0.564820 -0.121713 0.259051 0.034036 -0.034831 -0.126878 0.213611 0.117082 0.040033 0.494288 0.236092 0.561382 -0.471980 0.502444 0.372892 -0.026035 -0.633047 0.091838 0.272769 -0.350545 -0.472200 -0.637921 -0.048211 0.181493 0.470026 0.166510 0.188718 0.415894 -0.409398 0.402599 -0.589613 -0.491391 -0.062575 -0.278415 0.302060 -0.315935 0.196213 -0.185051 
1 -0.563024 0.461448 -0.774166 -0.625645 0.551504 0.414497 -0.079897 -0.940853 -0.158812 -0.249847 -0.277177 -0.014584 -0.077982 -0.195024 -0.395156 0.271252 -0.308006 0.143302 -0.142146 -0.117633 -0.778875 0.010421 -0.697411 -0.328152 -0.179860 0.098033 -0.364864 0.305536 -0.026615 0.310302 -0.205617 -0.162840 -0.022305 0.039208 -0.236824 -0.906955 -0.357946 -0.258043 0.514963 0.014961 0.053326 0.526086 0.651213 -0.836161 0.046834 0.291250 0.263130 -0.511721 0.245964 -0.267633 -0.330846 0.268933 0.169801 0.244861 -0.428716 -0.331522 0.004084 0.031217 0.337511 0.489144 -0.305991 0.103840 0.410050 0.845163 0.007629 0.222844 0.229238 -0.052763 0.036437 0.180356 -0.610793 -0.346333 -0.366315 0.036587 -0.404006 0.015309 0.233195 0.068500 -0.044931 -0.181662 0.096239 0.474889 -1.126088 -0.101349 -0.387310 -0.158167 0.155708 -0.206963 0.672624 0.226923 0.412199 -0.232950 -0.424189 -0.292262 -0.406440 -0.364647 0.437937 0.559095 -0.108596 0.222785 0.407042 0.564139 0.037315 -0.400722 0.238496 0.139658 0.147320 0.248131 0.505697 -0.529753 -0.486455 0.268383 0.065134 0.529820 -0.645985 0.845472 -0.214758 0.618120 -0.129013 -0.174164 0.065924 0.234861 -0.152020 0.014107 -0.116217 -0.622723 0.125320 0.336508 
1210 0.249403 0.225262 -0.731273 -0.818861 0.393807 -0.089997 0.002429 -0.769031 0.537866 0.151275 0.000706 0.179496 -0.011249 -0.006038 0.419260 0.046200 -0.008947 -0.285740 0.795256 -0.632381 0.045715 -0.279539 -0.337532 -0.648317 0.300392 0.006721 0.327453 -0.434894 0.163570 -0.061232 -0.556021 -0.281239 0.127716 -0.084689 0.088234 -0.168348 0.084345 -0.452391 -0.451824 0.125556 -0.395148 0.062835 0.682183 0.121776 -0.073034 0.117788 0.282089 -0.281632 0.132701 0.509818 0.395641 0.244344 -0.161606 -0.513297 0.521200 -0.055134 0.002762 -0.108652 -0.070366 0.271288 -0.161807 0.818331 0.825022 -0.083406 -0.275236 0.640182 -0.445564 0.255251 0.345070 -0.347679 -0.422284 -0.063510 0.231676 -0.228388 0.047760 0.240229 0.296526 -0.093832 -0.094884 -0.412399 -0.325129 0.257163 -0.965343 -0.030882 0.157703 0.300279 0.369208 -0.053750 0.790447 0.060079 -0.100172 -0.073187 -0.320959 0.155583 0.019699 -0.392673 0.121196 0.365400 0.462600 0.588407 0.056771 0.684677 -0.036206 0.280850 0.366807 -0.491714 -0.573537 0.454259 0.320404 0.004444 0.547783 -0.147460 0.052146 -0.127471 -0.203270 0.580633 0.091483 0.030794 -0.227901 -0.214614 0.301891 0.368527 0.381271 0.311397 0.316572 0.504895 0.058368 -0.219420 
589 0.193838 0.105158 -0.435389 -0.168063 -0.152708 0.742250 -0.248054 -1.183372 -0.262985 -0.107777 -0.166635 -0.912486 0.591853 0.234217 0.070254 -0.056288 -0.297620 -0.528501 0.434955 -0.031135 -0.444121 0.066858 -0.851362 -0.281670 -0.469084 -0.261519 0.489227 -0.572072 0.056985 0.111945 -0.080404 0.034573 0.533971 -0.298680 0.419763 -0.463862 -0.174223 0.139807 -0.171183 0.384552 0.151171 0.027873 -0.297397 -0.357167 0.137201 -0.426818 0.009133 -0.262995 0.390541 -0.026204 0.231740 0.112115 -0.335143 0.018950 0.241714 0.269091 -0.059336 -0.367022 0.194776 0.051805 0.001830 -0.083034 0.467898 0.478663 -0.143992 -0.007855 -0.354222 -0.451654 -0.041263 -0.405347 0.156460 -0.366675 -0.268881 -0.103002 -0.061964 -0.229888 0.433264 0.334897 0.045160 -0.759019 -0.310389 -0.179655 -0.717778 0.276597 0.458496 0.071773 -0.042255 0.153161 0.725614 0.332069 0.071658 0.097909 -0.403244 -0.152345 -0.436822 -0.106036 -0.135050 -0.304759 0.350168 0.452652 -0.215272 0.657296 -0.271487 -0.070862 -0.311246 0.004566 -0.085438 0.340461 0.407670 -0.201427 0.149526 -0.667015 -0.115084 0.284799 0.274372 -0.019877 -0.469573 -0.633130 -0.410273 0.464247 -0.109494 0.274079 0.546353 0.220629 -0.298558 -0.273886 -0.080241 0.001670 
608 -0.109566 0.221590 0.156278 -0.361129 0.247090 0.497414 0.121737 -0.669908 0.035719 -0.028601 0.093040 -0.521112 0.467920 -0.124937 0.108682 0.158112 -0.524949 0.104170 0.328542 -0.055425 -0.565295 0.319816 -0.113043 -0.494174 -0.108405 -0.069103 0.036634 -0.179144 -0.977035 -0.010334 0.046849 0.714705 0.251917 -0.073296 -0.020188 -0.650953 0.195760 0.030793 -0.266162 0.146784 -0.009992 -0.090035 -0.244270 -0.461480 -0.429046 0.084989 -0.009340 0.042524 0.327832 0.386320 0.238328 0.117150 0.094582 0.117152 0.441552 -0.355131 -0.306471 -0.085194 0.188604 -0.079300 -0.269354 -0.010997 0.095007 0.835029 0.279444 0.472763 0.153747 0.388858 0.223325 0.127980 0.039756 0.269150 0.077868 -0.153227 -0.279942 0.032916 0.223498 0.614915 -0.262494 -0.641199 0.156942 0.174406 -0.688354 0.142795 -0.256777 0.187603 -0.190888 0.191016 1.273760 0.717494 -0.395521 0.266473 -0.630858 -0.276144 -0.219605 0.035140 -0.231514 0.353384 0.072829 0.431773 -0.090594 0.950076 -0.037250 0.022016 -0.211655 -0.029448 0.260694 0.018414 -0.177008 -0.276369 0.382069 -0.073036 -0.113710 0.305124 -0.008498 0.140709 -0.200444 -0.083735 -0.191685 0.235785 -0.514321 -0.244172 0.087609 -0.109548 0.074712 0.062138 0.363172 0.225582 
4993 0.361787 0.459837 -0.148441 0.026154 -0.374113 -0.722733 -0.209321 -0.855954 -0.557649 -0.125379 -0.055198 -0.466986 0.417712 -0.065231 -0.194661 0.024211 -0.055384 0.307397 0.484612 -0.238906 -0.513998 -0.437349 -0.153137 0.312793 -0.141248 0.176378 0.021192 -0.006347 -0.312695 -0.064958 -0.240080 -0.153594 -0.593132 0.730319 -0.399905 -0.460198 -0.452895 0.121953 0.083458 -0.551796 0.032283 -0.516873 0.509125 1.014215 -0.810595 0.402340 0.284322 -0.147004 0.250540 -0.373284 -0.146572 0.158167 -0.446804 -0.089230 -0.411155 0.001269 0.042438 -0.033762 0.131028 0.047385 0.386520 0.111163 -0.251177 0.259313 0.150287 0.312167 -0.373864 0.175769 0.154139 -0.054473 0.035280 -0.264877 0.048786 -0.793670 -0.272061 0.133020 0.981087 -0.572418 -0.023773 0.267293 0.519467 -0.169571 -0.808393 0.100167 0.057202 0.297886 0.161314 0.299495 0.318403 0.491764 -0.089558 -0.267117 -0.107881 0.172457 -0.545678 0.476544 -0.227854 0.491696 0.137231 -0.462229 0.438475 0.558396 0.002286 0.060292 0.352077 0.480095 -0.434824 -0.477187 0.349508 -0.451338 -0.683636 0.341777 -0.145992 0.299727 -0.451575 -0.216153 0.077655 -0.630171 -0.628725 -0.513684 -0.110932 -0.518030 -0.285367 -0.904820 0.331561 0.010819 -0.633289 -0.196330 
1270 -0.059180 0.320268 -0.397415 0.188319 0.247848 -0.181016 -0.008760 -0.553841 -0.186113 0.161006 0.158296 -0.242820 -0.054261 -0.114898 0.041181 0.263478 -0.331216 0.571702 1.505559 -0.262544 0.000158 -0.208010 -0.739332 -0.092155 0.331559 -0.973996 -0.356371 0.237052 0.721939 0.450243 0.444986 0.142256 -0.121531 0.093414 0.535667 -0.085876 0.476366 0.652345 0.104201 -0.219023 -0.290195 -0.167591 0.576111 -0.023697 0.523414 0.353820 -0.037018 0.215394 0.631438 0.156787 -0.013896 0.219321 0.119916 -0.059586 -0.328169 0.025306 0.137145 0.423009 0.303381 0.341586 -0.239743 0.707921 -0.251585 0.368491 0.111876 0.324404 -0.072943 0.472289 0.455580 -0.510896 -0.490561 -0.057010 -0.324959 -0.142041 -0.058281 -0.028431 0.256252 0.179054 -0.262339 -0.493078 0.159329 -0.269917 -0.954613 -0.321261 -0.089424 0.331446 0.656342 -0.068023 0.947821 -0.005018 -0.015986 0.258103 -0.196910 -0.602686 0.247996 -0.249716 -0.225908 0.224888 -0.042746 0.192295 -0.169245 -0.000725 -0.246142 -0.385352 -0.257266 -0.126164 0.392235 -0.389631 0.369185 -0.207415 -0.173192 -0.473429 -0.122251 0.222273 -0.134889 -0.140240 0.772499 -0.390014 -0.594166 0.534750 0.351905 -0.091017 0.392170 0.439253 0.376501 -0.003873 -0.166464 -0.214538 
47 -0.307945 0.293731 -0.417997 -0.808573 0.329836 0.228161 0.331046 -0.345136 0.600107 -0.231493 0.090055 -0.535935 0.736837 -0.004209 -0.296528 0.081577 -0.328034 0.447514 0.382973 -0.126325 -0.513029 -0.166634 -0.230293 -0.262607 -0.003109 -0.149504 -0.294122 -0.023362 -0.259739 -0.031568 0.286902 0.264273 -0.415396 -0.151872 0.071014 -0.829898 0.164705 -0.094817 0.265487 -0.021548 0.401734 0.111823 0.134565 -0.702445 0.431286 0.181836 -0.194960 -0.015232 -0.016086 -0.099902 0.320942 0.319879 -0.600114 0.301729 0.105425 -0.284424 -0.097083 -0.164268 -0.730848 -0.072875 0.293739 -0.133050 -0.140629 0.347276 -0.079108 -0.200868 -0.284928 -0.146975 0.178542 -0.257105 -0.022035 -0.346081 -0.355834 0.756349 0.571942 0.210071 0.011198 -0.467519 -0.005096 -0.207622 -0.021728 0.652266 -1.123569 0.094005 -0.237879 -0.158072 -0.194082 -0.648902 1.058856 0.465605 0.060203 -0.307277 -0.274176 -0.393359 0.228820 -0.428095 0.163016 0.266010 0.212994 -0.380050 0.449002 0.760597 0.239877 -0.624585 0.681890 -0.119259 0.006284 -0.241699 -0.019216 -0.260109 0.043422 0.288689 0.090201 0.201453 0.143708 -0.060941 0.558190 0.738106 -0.341788 -0.260903 -0.274101 0.026565 0.419179 -0.715413 -0.003277 0.009533 0.080068 0.726269 
480 -0.003043 -0.134629 -0.719108 -0.148774 0.102988 0.426600 0.314691 -1.076570 0.169913 -0.437806 0.119865 -0.584033 0.584015 0.096590 -0.054012 -0.497945 -0.469432 -0.091817 0.582078 -0.422038 -0.131089 0.605792 -0.288099 0.194553 -0.336833 -0.576621 0.395699 0.048540 -0.077252 0.132520 -0.413217 -0.434677 -0.000410 -0.209027 0.519536 -0.202714 -0.301318 0.625240 -0.177750 0.730775 0.416494 -0.007420 -0.471814 0.043411 -0.217460 -0.359113 -0.253362 0.100874 -0.293725 0.170972 0.483394 -0.090771 -0.137186 0.184754 0.065321 0.016180 -0.105760 0.028369 0.249019 -0.213758 0.128594 -0.087355 0.793441 0.507486 0.745037 0.210971 0.214148 0.067192 -0.068754 0.004559 0.132907 -0.100295 -0.158004 0.387232 -0.025161 -0.114112 0.019005 0.197815 -0.322930 -0.647654 0.029554 0.433398 -0.990381 0.221116 -0.009826 -0.276459 0.125185 0.014847 0.540448 0.244894 0.048041 0.073410 -0.914752 -0.201655 0.101377 0.331530 0.197304 0.377056 0.216778 0.082806 -0.195581 0.434860 -0.193537 0.127175 0.207293 -0.144115 -0.040664 0.044162 0.677735 0.047194 0.655274 0.267616 -0.899101 0.453039 -0.107762 -0.505717 0.259372 -0.036282 -0.807547 0.294940 -0.328354 -0.226335 0.168647 0.000365 -0.522516 -0.126133 -0.362204 0.262350 
7153 0.681730 0.110284 0.094353 -0.104927 0.060211 -0.394978 0.235854 -1.104184 0.398537 -0.164357 0.497883 -0.265058 0.002017 0.166074 0.516837 -0.228007 0.148225 0.049072 0.254199 -0.252306 0.014928 -0.564929 -0.006181 -0.339173 -0.406595 -0.546719 0.593373 0.313919 -0.654370 0.308748 -0.498635 0.140624 -0.557254 -0.273959 0.224460 -0.445523 -0.691665 0.053725 -0.208332 -0.680533 -0.037097 0.381189 -0.449014 0.089467 -0.318928 0.442921 0.595968 -0.353249 -0.096795 -0.514136 -0.525588 -0.103054 -0.136597 0.147941 -0.121265 -0.823430 0.280027 0.197191 0.308622 0.135667 0.006872 -0.195822 0.303231 0.209432 -0.145430 -0.084314 0.289433 0.257799 0.068552 -0.340005 0.661658 0.084009 -0.071851 0.070711 0.120239 -0.117164 0.755157 -0.256230 -0.799570 0.087806 0.327693 -0.136113 -0.637401 0.121843 0.434555 -0.284903 -0.177521 0.294942 0.613125 0.405715 -0.293627 -0.561562 -0.496696 0.151202 0.653507 0.056205 -0.284451 -0.036137 0.748659 0.328429 0.105661 0.134514 -0.569622 0.173270 0.083680 0.154249 -0.044033 0.346369 0.113577 -0.359061 -1.049052 0.691095 -0.425194 0.060385 -0.796068 -0.306175 0.539042 -0.083991 -0.181441 0.060515 -0.107898 -0.317659 0.043207 -0.496317 -0.328474 0.417668 -0.314366 -0.165459 
5952 0.393048 0.328087 -0.179880 -0.111474 0.240924 0.021760 0.069172 -1.233986 0.192043 -0.130796 0.406948 -0.501983 0.631739 -0.007118 0.164411 0.004673 -0.197633 0.285318 0.729687 0.110267 -0.422995 -0.494136 0.204265 0.205970 -0.415871 -0.548640 0.422486 0.421294 0.113654 -0.368268 0.221132 -0.192872 -0.550802 0.114745 -0.330863 -0.674031 -0.268339 0.461940 0.242088 -0.495082 0.138496 -0.216178 -0.192752 -0.101270 -0.374384 0.204338 0.201443 -0.215169 0.561218 -0.621244 -0.802397 -0.266773 -0.616648 -0.254326 -0.226146 -0.139774 -0.011455 0.353103 0.230868 0.170234 0.348297 -0.357187 0.139776 -0.189300 0.330647 -0.103540 0.319574 0.017741 0.061726 -0.436982 0.378364 -0.098036 0.364273 -0.798469 -0.153506 0.033973 1.204060 -0.374877 -0.295011 0.444770 0.007392 -0.245257 -0.600620 -0.100835 0.207176 0.456334 0.480041 0.168866 0.435618 0.433088 0.424159 -0.054404 0.182425 0.322417 0.591651 0.245949 0.084661 0.434619 0.325354 0.127119 -0.323292 0.007662 -0.477064 0.038974 0.801120 0.051059 -0.182736 0.569720 0.470760 -0.194893 -0.244640 0.326277 -0.452863 0.197360 -0.440467 -0.329541 -0.102744 -0.361453 0.204470 -0.170899 0.525397 -0.059034 0.135523 -0.867280 -0.412807 0.097583 -0.235011 -0.357191 
457 0.080493 -0.045434 -0.434435 -0.109186 -0.119334 0.740148 -0.628488 -0.998664 0.031880 -0.279795 -0.000049 -0.510607 0.117811 0.209427 -0.078222 0.320450 -0.179943 0.252019 0.277397 0.038296 -0.358717 0.336174 -0.178205 -0.349247 -0.490222 -0.407758 -0.095897 0.426765 -0.116637 0.356953 -0.162650 -0.106788 -0.067211 0.373279 0.668398 -0.333736 -0.072790 0.647119 0.199815 0.370549 0.159349 0.433318 0.106801 -0.068968 -0.596718 -0.082824 -0.196833 0.178751 -0.498907 0.758571 0.485375 0.053408 -0.496472 -0.260512 0.203804 0.524737 0.279962 0.065708 0.246544 0.685478 -0.110250 -0.400515 0.112253 0.229121 -0.318548 -0.079804 -0.139021 0.228912 -0.037153 -0.501457 -0.461576 -0.284352 0.177535 0.433809 0.334187 -0.647618 0.384744 -0.012166 -0.554975 -0.422736 -0.012635 0.449866 -1.180591 -0.131438 -0.231085 -0.184743 -0.599731 0.076273 1.156294 0.431831 0.122379 0.085104 -0.071169 -0.048351 -0.342674 0.196542 0.270820 0.172605 -0.063219 -0.116208 0.154384 0.608457 0.076635 -0.218186 -0.086350 -0.014803 0.221871 0.834790 0.557308 0.227317 -0.034650 0.381840 0.215247 0.447303 0.259789 -0.246152 0.397620 0.542099 -0.224939 0.351910 -0.636312 0.649772 0.210033 0.385216 -0.092165 0.079295 -0.256057 0.376882 
1704 -0.265626 0.932724 -0.146446 -0.006569 0.323075 -0.210736 -0.067025 -0.806723 -0.436307 0.264730 0.213930 -1.042131 -0.177065 0.357963 0.193227 -0.164163 0.657017 0.143427 0.509525 -0.545238 0.105160 -0.280934 0.342298 -0.452432 -0.206999 -0.078540 -0.601326 -0.368816 0.092388 0.615491 0.027730 -0.535176 0.414254 0.118592 0.000899 -0.298268 -0.156900 -0.257094 -0.090932 -0.196185 -0.458823 0.509833 0.191091 -0.122225 0.163851 0.399030 0.409874 0.052811 -0.350886 -0.376729 0.144462 -0.267159 -0.118935 -0.454669 -0.574422 -0.080761 -0.589897 -0.094733 0.368738 0.096076 -0.120483 -0.143803 -0.071148 0.256918 -0.071252 -0.268463 0.134427 0.280860 -0.436076 0.023636 0.503144 0.162228 -0.207894 -0.441447 0.370803 -0.718271 0.943502 -0.077272 -0.380030 -0.390977 -0.064471 -0.227065 -0.870064 -0.078655 0.150521 0.373266 0.674402 0.194427 0.982728 -0.252822 0.510102 0.862101 -0.030095 -0.498593 0.274024 0.145882 -0.262895 -0.159210 -0.557690 0.057150 0.086854 0.431721 0.009477 0.226885 -0.222844 -0.050510 -0.293734 -0.171079 -0.207651 0.782807 0.140216 -0.025109 -0.659722 0.066966 0.468917 -0.068226 0.191533 0.111821 -0.243547 -0.569824 -0.406727 -0.012992 0.087309 0.099249 -0.106944 0.063282 -0.499481 0.213579 
2028 -0.121023 -0.044962 -0.048776 -0.036517 -0.460855 -0.176691 -0.209139 -0.920618 0.640832 -0.411473 -0.149915 -0.903831 -0.052121 0.290394 0.159143 -0.009315 -0.213754 -0.039960 0.733392 -0.118725 0.277894 -0.678734 0.416041 -0.068071 -0.183850 -0.201316 -0.359250 -0.536350 -0.236741 0.780776 0.131299 -0.120894 -0.458246 0.304264 -0.312612 -0.489767 0.315442 -0.255998 0.072784 0.173774 -0.035986 -0.299203 -0.271906 -0.297934 -0.223989 -0.250012 0.678928 0.194330 0.106905 -0.049419 -0.547300 -0.189312 -0.265633 -0.359622 -0.435561 -0.396108 -0.465671 0.276077 -0.635939 0.190242 0.012401 0.257334 0.126226 0.261854 -0.380118 -0.071158 -0.758600 0.246981 0.350152 -0.322364 0.190276 -0.032101 -0.531567 -0.419982 0.191867 -0.468912 1.014564 -0.196865 0.215992 -0.157392 -0.154172 -0.150957 -0.609889 0.055666 0.405122 0.036791 0.736136 -0.072019 0.689515 0.460633 1.017521 0.019945 0.179147 -0.369130 -0.013009 -0.190534 0.805481 0.065064 -0.191111 -0.269588 0.038438 0.154775 0.281597 0.516093 -0.400842 -0.064242 -0.207070 -0.000911 0.412982 0.255968 0.161074 0.344691 0.179001 -0.254782 -0.188795 -0.002493 0.749419 -0.457387 0.216094 -0.308561 0.996006 -0.518196 0.180365 0.281890 0.180086 -0.044429 0.242814 -0.493405 
32 -0.322528 0.651412 -0.118107 -0.335994 0.488686 0.185828 -0.078415 -0.592384 0.000413 -0.002053 0.495349 -0.345760 0.377750 0.225256 -0.216145 0.090932 -0.441351 -0.009538 0.523744 0.262132 -0.734266 0.126295 -0.854593 -0.006749 0.037657 -0.066844 0.086801 0.019240 0.171474 -0.300378 -0.210194 -0.158050 0.195160 0.069082 -0.039505 -0.766096 -0.181425 0.334459 0.831258 -0.110794 0.524911 -0.169538 0.255665 -0.633184 0.321507 -0.011507 0.078070 -0.105867 -0.278238 -0.101171 -0.405603 -0.127015 -0.650279 0.257707 0.328025 -0.173442 0.117303 0.322583 -0.442660 -0.151012 -0.105468 0.347617 0.561294 0.476816 0.529179 0.084318 -0.453116 0.116411 0.014057 -0.524111 -0.102021 -0.192150 -0.421101 0.344071 0.221682 0.251863 -0.058270 0.096279 0.076039 0.108103 -0.235813 0.465402 -1.081637 -0.151749 -0.058878 -0.277427 -0.257592 -0.289715 0.667802 0.473679 -0.058330 -0.471016 -0.295393 -0.266164 -0.225971 -0.045774 0.222241 0.056988 -0.644731 -0.073637 0.236279 0.474216 -0.394268 -0.134347 -0.482728 0.224772 0.247800 -0.118914 0.155984 -0.080734 -0.114486 0.496679 -0.119029 -0.256187 -0.542808 0.714963 0.075455 0.487633 -0.190017 0.198344 -0.074916 1.030968 0.360675 -0.601132 -0.346988 -0.333912 0.745054 0.295801 
150 0.252336 0.356055 -0.606154 -0.173816 0.135580 0.085780 0.624737 -0.629168 -0.068279 0.086322 -0.080648 -1.196191 -0.020066 0.829633 -0.220768 -0.164615 -0.431204 0.187805 0.281803 -0.232205 -0.833974 -0.106596 -0.708490 -0.000444 -0.056463 -0.454847 -0.360411 -0.104815 -0.238740 0.384183 -0.166408 -0.079688 0.139182 -0.490150 -0.001278 -0.308339 -0.025901 0.133649 0.178631 0.059734 0.293226 0.280402 0.045543 -0.539790 -0.153672 0.378675 -0.104335 0.605017 -0.043637 0.157663 0.207997 -0.027457 -0.368757 0.331788 0.312341 -0.092804 -0.335731 0.042543 -0.224429 0.128730 -0.223955 0.144740 0.330625 0.468809 0.006202 0.029059 -0.329636 -0.512891 0.113376 0.322794 0.702900 -0.739242 -0.559309 0.260691 -0.140375 -0.025861 0.014754 -0.197669 0.150905 0.231098 -0.043363 0.121666 -0.902107 -0.293397 -0.168967 -0.648287 -0.500480 -0.276858 1.237605 0.384852 -0.338077 -0.411932 0.009715 -0.303015 0.048061 -0.119014 0.173035 -0.066245 -0.105359 0.036243 0.185257 0.542036 -0.168944 -0.670985 0.077115 0.076987 -0.027947 -0.039172 0.315758 -0.586913 -0.035702 0.588396 -0.064933 -0.017913 -0.022818 -0.056776 -0.254609 0.193058 -0.165682 -0.014883 -0.318293 -0.001562 0.147242 0.029892 -0.011420 -0.236088 0.410178 -0.186163 
1136 -0.059896 -0.168382 -0.208230 0.016092 -0.205057 0.407349 -0.197585 -0.550676 0.832761 0.423944 0.000388 -0.572141 -0.131214 0.471891 -0.104354 0.160409 0.055077 0.585261 0.720820 -0.302254 -0.227020 0.003647 -0.145790 -0.244150 0.006130 -0.807493 -0.374399 -0.019612 -0.199351 -0.409544 -0.112740 -0.175401 -0.982153 -0.164771 0.249520 -0.500467 0.057407 0.282705 0.122332 -0.023703 0.176604 -0.611456 0.261099 -0.356725 -0.208950 0.455162 0.254545 0.246994 0.193992 -0.134424 -0.207309 -0.239858 -0.133112 -0.545738 -0.250768 -0.781740 0.195942 -0.321282 -0.024331 0.022423 0.200873 0.341366 0.106185 0.302568 -0.046070 0.876475 -0.067412 -0.394936 0.049246 -0.005200 -0.231788 0.597553 -0.279270 -0.290027 -0.258601 -0.410880 -0.232424 -0.241346 0.229255 -0.884673 -0.142660 -0.517596 -0.524044 0.414409 0.078199 0.124824 0.033805 -0.445550 0.999651 0.238881 -0.211998 -0.526576 -0.382953 0.246081 0.010851 -0.115222 0.413489 -0.551146 0.069554 0.717046 -0.370169 0.505603 -0.421838 0.134717 0.002471 -0.292819 -0.211108 0.179331 0.367117 0.157357 0.066487 -0.887633 0.150127 -0.038957 0.128054 0.636292 0.768880 0.117619 -0.708222 0.159535 -0.965518 -0.114421 0.073349 0.187723 0.558524 -0.513162 -0.083235 0.031386 
1193 -0.187926 0.180565 0.011627 -0.006764 0.475486 0.653338 0.499750 -1.277335 0.604733 0.479713 -0.220609 -0.792937 -0.384630 0.625306 -0.068733 -0.166132 0.421341 0.612591 0.611545 -0.379356 0.087923 0.013838 -0.741063 -0.160594 0.137845 -0.085846 0.308935 0.050768 0.260019 -0.168374 -0.497053 -0.434613 0.133390 -0.047854 -0.006513 -0.118594 0.557966 -0.544465 -0.104280 0.046075 -0.144502 0.591207 0.597923 -0.226536 0.393816 0.139037 -0.134536 0.478182 -0.084262 -0.220923 -0.557505 -0.293097 -0.531328 0.069116 -0.640764 -0.678424 0.000522 0.152127 -0.147457 0.656926 0.306386 -0.169837 0.159691 0.113099 0.002967 0.538280 0.162539 -0.098252 0.389187 -0.376157 -0.654911 -0.103105 0.413958 0.149314 -0.042396 -0.292291 0.167798 -0.115727 0.346642 -0.454361 0.125493 0.021021 -0.392268 -0.520818 -0.162904 0.219176 0.342826 -0.128148 0.548727 0.573042 0.544716 -0.268715 -0.450063 0.368825 -0.378092 0.796281 0.332315 0.371029 0.356181 0.401194 0.294596 0.575396 -0.348590 0.328915 0.633141 -0.557671 0.099293 0.344983 -0.153607 0.385560 -0.087465 -0.506616 0.129372 -0.121898 -0.463456 0.169685 0.142870 0.021241 -0.224702 0.045507 -0.039928 0.076383 0.616091 -0.664770 0.676968 -0.762576 0.464330 0.202498 
1221 -0.241923 0.461903 -0.266517 0.457765 0.127555 0.084539 -0.108078 -1.269888 0.578007 -0.228717 -0.176222 -0.338731 0.009294 -0.088565 -0.410840 0.266947 -0.049605 -0.631049 0.916438 -0.526396 -0.224886 0.013283 -0.305952 -0.228819 0.538496 -0.742426 -0.344855 0.366774 -0.092321 0.045672 -0.295911 -0.962230 -0.122100 0.473900 0.366677 0.447192 0.674455 -0.256321 -0.406236 0.072801 -0.112766 -0.125813 0.036973 -0.051675 0.249252 0.208146 0.228634 -0.214264 -0.333829 0.283707 0.127294 0.522503 -0.216054 0.432593 -0.127654 0.267206 -0.024356 0.615945 0.256859 0.257229 -0.089098 -0.641523 0.134138 0.258472 0.426748 0.935607 -0.056180 0.063844 0.498399 -0.364397 0.265798 0.103075 -0.027339 -0.426533 -0.154917 -0.476998 0.247494 -0.256920 0.272954 0.076367 -0.471565 0.295888 -1.157677 -0.183728 0.387643 -0.012997 -0.094235 0.187630 0.764841 0.284862 0.150372 -0.146181 -0.098064 -0.154524 -0.329429 0.296822 0.005156 1.062384 0.880983 0.163856 -0.577959 -0.093743 -0.203438 -0.310790 0.464885 -0.031967 0.132629 -0.127908 0.368166 -0.325093 0.422135 -0.702239 0.257606 -0.380978 0.216165 0.118877 0.395480 0.521046 0.135822 -0.282564 0.074470 -0.233946 0.281130 -0.449550 0.519498 0.081215 0.596305 -0.020627 
2762 0.418795 0.530495 -0.096205 -0.875777 -0.089714 -0.486715 0.004128 -1.335140 -0.073873 -0.783361 -0.166511 -0.618726 0.362614 0.580883 -0.395129 0.127431 0.372605 0.643224 -0.070092 0.201728 0.624288 -0.362401 -0.377857 -0.279159 0.195382 -0.508495 0.139440 0.281915 0.608969 0.180069 -0.198845 0.355052 -0.133660 0.523252 0.623614 0.086691 -0.100988 -0.249100 0.144377 0.296891 0.002106 0.268354 0.069202 -0.146257 -0.205441 0.230224 0.310109 -0.240082 0.327139 -0.222326 0.431534 0.640987 -0.895127 -0.284420 -0.056807 0.563074 -0.284700 0.146311 0.232937 0.114372 -0.005333 0.541078 -0.258349 0.145993 -0.066989 0.057243 -0.617091 -0.400065 0.749874 0.311911 -0.047894 -0.275307 0.074875 -0.172128 0.403584 -0.067054 1.186793 -0.064886 -0.148829 -0.206164 0.320373 -0.141131 -0.465728 -0.072658 -0.323806 0.056325 -0.451147 0.143952 0.039984 -0.457082 0.906139 0.379370 -0.257335 -0.555465 0.580352 0.081799 1.013038 0.370117 0.463042 -0.106546 -0.367114 0.139367 -0.107868 -0.183042 0.274359 -0.010122 -0.224035 -0.275723 -0.138407 -0.066366 -0.128273 -0.220647 0.278096 0.157861 -0.305629 -0.101874 -0.172061 0.043677 0.178286 -0.237878 0.632857 0.355143 0.720540 -0.207493 -0.057943 0.366147 0.360990 -0.112745 
4226 -0.174087 0.125473 0.664778 -0.507993 -0.396555 -0.520169 -0.115334 -0.258905 -0.226838 0.255853 -0.441954 -0.452941 -0.053642 0.171787 0.378492 -0.313887 0.034639 -0.099828 0.440929 0.444456 -0.210204 -0.342696 -1.179456 -0.242561 0.214642 -0.433240 -0.011100 -0.134167 0.624085 -0.013531 0.459915 0.347731 -0.498697 -0.092013 -0.132649 -0.250421 0.105634 -0.007790 -0.065631 -0.186340 0.743092 -0.134940 -0.180791 0.320813 -0.184449 0.251860 0.410436 0.121576 -0.130033 -0.215909 0.266242 0.589424 -0.205163 -0.813139 0.097678 -0.129697 0.287581 -0.305087 -0.425676 0.411931 -0.117752 -0.206366 -0.334649 0.241717 0.479318 0.182276 -0.038335 -0.113054 -0.202639 -0.799505 0.070490 0.222472 0.279954 -0.493458 -0.080226 -0.248430 0.783187 -0.522138 0.379721 0.072304 0.320465 0.477506 -0.860081 -0.952123 0.221894 -0.013445 -0.134837 0.141104 -0.120149 0.835773 -0.136487 -0.058164 -0.130185 -0.086550 0.134940 0.230082 0.512309 0.128072 0.571769 -0.343247 0.267180 -0.304915 -0.260218 0.321559 0.595709 0.147645 -0.135760 0.267772 0.503786 -0.454558 -0.557492 -0.005200 -0.211807 0.718080 -0.051834 0.364379 0.608140 0.440518 -0.397091 -0.728943 -0.277627 -0.096411 -0.468835 -0.298711 0.192004 -0.451492 0.009868 -0.298142 
590 0.234506 0.490822 -0.392105 -0.253314 0.163377 0.602302 -0.081762 -1.172468 0.219112 -0.320631 0.247632 -0.878562 0.583572 0.604839 0.112542 -0.307731 -0.090249 0.260775 0.666557 0.505875 -0.531510 0.420556 -0.584439 0.003927 0.098630 -0.903652 0.454653 0.117669 -0.097455 -0.071478 -0.062984 0.859879 0.272958 -0.683565 -0.210135 -0.294597 0.137081 0.400118 -0.072493 -0.433981 -0.239881 0.239712 -0.366986 -0.356795 -0.683936 -0.171768 0.117716 0.067242 -0.563837 0.329284 0.296286 -0.021343 -0.333223 0.051073 0.369036 0.167712 0.243420 0.314494 0.676088 0.712147 -0.580586 -0.344614 0.532887 0.377664 0.115959 0.091965 -0.192012 -0.312866 -0.649390 0.032781 -0.482542 -0.575827 -0.279106 -0.157320 0.198735 -0.262163 0.285607 0.277673 0.321807 -0.201885 -0.020673 0.136194 -0.475878 0.225573 -0.330580 -0.074048 -0.239103 0.472914 0.911607 0.028524 -0.442579 0.230019 -0.480963 0.044560 -0.267382 -0.146103 0.607466 0.385394 -0.248317 0.270472 0.068032 0.408170 0.302230 0.290431 -0.275695 -0.259326 0.100188 -0.123553 0.494958 0.514826 0.158405 -0.138423 -0.162310 0.097253 -0.275609 -0.024952 -0.035958 0.158788 -0.537437 0.159366 -0.184110 -0.038089 -0.553557 0.218627 0.318638 -0.061972 0.046766 0.249013 
541 -0.317354 -0.081515 -0.041700 -0.407053 0.172906 0.310547 -0.316806 -0.586955 0.104023 -0.237717 0.237075 -0.622914 0.642381 0.441566 -0.180762 0.360110 -0.406169 0.602885 0.818019 -0.402654 -1.005554 0.085828 -0.567952 -0.092860 -0.493238 -0.462968 0.188634 -0.446135 -0.269239 0.020228 -0.132963 0.500103 -0.003051 -0.462227 0.310311 -0.555021 0.246829 0.257512 -0.157053 -0.084551 0.538088 0.458338 -0.128216 0.141609 -0.426710 -0.067957 -0.030881 -0.131238 0.071367 0.356535 0.376222 0.145101 0.232768 0.347632 -0.014359 -0.175429 -0.004109 0.175353 0.235063 0.633000 0.585212 -0.442082 0.681869 0.241884 0.027483 0.087741 -0.561092 -0.300913 -0.569763 -0.376991 0.317174 -0.097302 -0.313977 -0.288610 -0.571116 -0.568125 -0.118481 0.175260 0.024311 -0.532996 0.187644 0.415556 -0.475901 0.186818 0.260933 -0.172648 -0.293496 0.150830 0.735244 0.031872 0.184373 -0.348262 -0.134456 0.184908 -0.445802 0.284200 -0.405092 0.018886 0.060466 0.676179 -0.327642 0.436147 -0.206735 0.257818 0.140456 0.010672 -0.239369 0.249305 0.193750 -0.091398 0.234012 0.242777 0.195921 0.197520 -0.231507 -0.217524 0.242824 0.222298 -0.314125 0.905419 -0.328129 0.315920 0.527071 -0.067374 -0.319128 -0.252419 -0.088743 -0.151813 
1214 0.027338 0.110881 -0.164722 -0.449276 -0.068120 0.218799 0.034390 -1.089385 0.349837 0.424156 -0.090752 -0.673094 -0.248105 0.835755 0.493211 0.038681 0.045450 0.215424 0.537328 -0.464747 0.420888 -0.181571 -0.368901 -0.195990 0.430739 -0.550516 0.069901 -0.097811 0.546848 -0.488877 0.402509 -0.530640 0.467186 0.136176 0.172099 -0.763987 0.279455 -0.196555 -0.023218 -0.253912 0.103772 -0.291039 0.405923 0.292984 -0.068965 0.481386 0.390552 -0.087081 0.038179 0.234826 0.621252 0.289201 -0.094100 0.009799 -0.300575 -0.311051 0.259546 0.310448 0.082960 0.006533 -0.402788 -0.100468 0.409549 0.577630 0.645674 0.320213 -0.326894 0.136955 -0.438798 -0.482988 -0.568362 -0.266584 -0.767026 -0.353692 -0.092721 -0.056513 0.088239 0.457891 -0.425446 -0.600231 -0.332562 -0.009884 -1.118443 -0.107653 0.366901 -0.769403 0.383750 -0.625451 0.357824 0.227795 -0.196374 -0.192549 0.024821 0.550717 -0.204903 0.250751 0.153596 0.349184 0.143484 0.528291 -0.245606 0.081155 0.107089 -0.386739 0.679354 -0.863476 0.016903 0.219424 -0.051517 -0.150939 -0.232858 -0.694926 0.438900 -0.079828 0.230709 -0.203743 0.078098 0.152345 -0.110488 0.588571 0.069092 -0.165188 0.387136 -0.291266 0.440454 -0.311975 -0.342879 -0.118123 
364 -0.375776 0.221921 -0.475031 -0.337158 0.415588 -0.005639 -0.431719 -0.810422 0.109640 -0.345198 0.064854 -0.384313 0.803826 0.680296 -0.527970 0.517191 -0.510581 -0.140400 0.618839 0.219203 -0.332112 -0.185040 -0.574205 0.063018 -0.119568 -0.390109 -0.421204 0.291839 0.196014 0.152389 -0.364955 -0.226532 0.203763 -0.291876 0.611356 0.289762 0.027142 0.561494 0.645725 0.444972 0.179433 0.222092 -0.234896 -0.721632 -0.535905 -0.300308 0.032600 0.406721 -0.374498 0.465510 0.316501 0.188707 -0.032700 -0.015591 0.250886 -0.110434 0.263970 -0.332074 0.185391 0.573643 0.445950 -0.254124 0.512551 0.588887 0.130143 0.453079 -0.395534 0.085510 -0.646101 -0.044382 -0.203494 -0.231848 0.235271 0.044428 -0.017413 0.232399 0.052544 -0.071271 0.267811 0.171840 -0.131214 0.209881 -1.113180 0.461077 0.142981 -0.204974 -0.065355 -0.325203 0.612101 0.365048 -0.604902 -0.009732 -0.532506 -0.622435 -0.016163 0.279260 0.017506 0.140730 -0.098414 0.217109 -0.203367 0.544870 0.051174 -0.006472 0.331726 -0.287228 -0.469080 0.319871 0.286441 -0.117382 -0.475720 0.376962 -0.249208 0.708841 0.042086 0.098220 0.097201 0.391937 -0.041591 0.053135 0.016233 0.436513 0.539371 0.590535 -0.025653 0.305934 0.173774 -0.163252 
4973 0.031713 0.288704 0.550818 -0.426854 -1.029914 -0.595269 -0.406392 -0.572748 -0.494016 0.346797 0.035411 -0.508788 0.511971 0.073246 0.029295 -0.101490 0.098282 -0.117598 0.450497 0.200168 -0.605475 -0.163517 -0.228727 -0.251244 0.491001 0.100692 0.445280 0.221676 0.405818 0.112325 -0.012165 -0.444621 -0.749454 -0.315784 0.314466 -0.596229 -0.124054 -0.563253 0.514080 -0.627767 0.439780 0.109765 0.393471 0.226654 -1.173645 0.139296 -0.272993 -0.157920 -0.001681 -0.853158 0.238533 0.381307 -0.287945 -0.651721 0.085474 -0.694600 -0.065848 -0.364379 0.137575 -0.453904 0.198422 -0.399732 0.281394 0.695308 1.214911 0.576546 0.247568 -0.505007 0.258221 -0.815392 0.550795 -0.140014 -0.233256 -0.056985 -0.185345 0.127193 0.579868 -0.041225 -0.000544 0.393150 0.127941 -0.236391 -1.065021 -0.151065 -0.014697 0.541577 0.204160 -0.384835 0.318077 -0.153718 0.272577 0.278995 -0.225907 -0.675505 0.077120 0.085392 -0.525932 -0.276680 0.211043 -0.578274 -0.169841 -0.498978 0.026702 0.230556 0.657931 -0.136037 -0.587502 0.251485 0.256258 -0.661186 0.617976 0.046423 -0.019186 0.198219 -0.481678 -0.202075 -0.253058 0.214244 -0.274609 0.129334 -0.148232 -0.119030 0.042976 -0.474842 0.523209 -0.323559 -0.211836 -0.430526 
58559 0.670049 0.479784 -0.281273 0.042620 -0.313048 0.274971 0.347264 -1.190239 0.321536 -0.511581 -0.554750 -0.159818 0.340549 0.081387 0.356845 0.337236 0.306259 0.414182 -0.009670 -0.284767 -0.122998 -0.164827 0.015424 -0.037327 -0.349139 -0.198606 -0.530474 0.250424 -0.252569 -0.445129 -0.295396 0.211193 -0.188413 0.092436 0.068748 -0.358532 -0.943329 -0.162579 0.275235 -0.499970 -0.370218 -0.499450 -0.436846 -0.074786 0.171938 0.246103 -0.249467 0.137425 -0.274936 0.150755 -0.195510 0.593528 0.230476 -0.250903 -0.715213 0.212388 -0.468822 0.257147 0.071559 0.427675 0.276947 0.045964 -0.888042 0.694678 0.162881 0.125641 0.191400 -0.181164 0.035777 0.082106 -0.417270 0.036836 0.324667 -0.079173 -0.104862 -0.062120 0.131831 -0.319927 -0.395846 0.243278 -0.367978 -0.159592 -1.413440 -0.045297 0.275998 -0.813437 -0.080496 0.243085 -0.096311 0.640327 0.327287 -0.732059 -0.315823 -0.432376 0.118965 0.351042 -0.205329 0.305686 0.483036 -0.004711 0.069614 -0.687054 -0.449572 -0.222887 0.655324 -0.249042 -0.140331 0.050621 0.048065 0.278318 -0.245959 0.382863 -0.368346 0.673565 -0.383472 -0.236855 0.105023 0.057886 -0.284868 0.094727 -0.263848 0.096846 -0.590897 -0.666447 -0.801523 -0.017026 0.316025 0.361344 
1240 -0.154770 -0.044678 0.174611 -0.044691 -0.138439 -0.028878 0.313889 -1.366958 -0.080005 0.102698 0.175875 -0.677476 0.051730 -0.184388 0.307585 0.003098 -0.399948 0.274186 0.773933 -0.479204 0.288513 0.126983 -0.544880 -0.813640 0.326678 -0.617841 -0.005436 0.430742 0.120861 0.071081 0.203179 0.286690 0.075015 0.011804 0.765560 -0.114875 0.374163 -0.091213 0.093651 0.328758 0.066403 -0.269367 0.350817 -0.176662 0.663203 0.287452 0.513176 0.114256 0.019009 -0.021997 0.094850 0.457214 -0.291780 0.509404 -0.399621 -0.390794 0.445399 -0.260216 -0.158054 0.253942 0.027237 0.415595 0.221588 -0.254704 0.244810 0.375643 -0.190947 -0.181731 0.023516 0.208237 0.087603 -0.210915 -0.249982 -0.731569 -0.416248 0.257441 0.327023 0.420706 -0.250282 -0.546744 0.118243 0.503883 -1.437904 -0.219457 0.369202 -0.555915 0.553619 -0.523122 0.414292 -0.315112 -0.236676 -0.061282 -0.017670 0.220909 0.199814 -0.083902 -0.391852 0.641853 -0.059357 0.536136 -0.071570 -0.348832 0.075609 0.146312 0.433040 -0.777555 -0.082254 0.437318 0.357360 -0.262143 0.643058 -0.789785 -0.061402 0.537577 0.354167 0.043552 0.090998 -0.040883 -0.207093 -0.098412 0.270958 -0.022602 -0.260184 -0.368167 0.214079 -0.483690 -0.055967 -0.134709 
1197 0.377176 0.460234 0.081500 0.207942 0.469682 0.306643 0.321527 -1.087211 0.258932 0.387045 -0.041322 -0.612251 0.358614 0.205386 0.138938 0.180904 -0.353998 0.010971 0.427581 0.151396 -0.550569 -0.111497 -0.618572 -0.615677 -0.407824 -0.462659 -0.586703 -0.171896 -0.042085 -0.676400 -0.642429 -0.445007 -0.039729 -0.224963 0.566986 -0.175549 0.560891 0.174082 -0.775880 -0.570592 0.139944 -0.203221 0.572158 0.593303 0.401371 0.400691 0.049658 0.128864 0.462230 -0.301708 -0.054983 0.161494 -0.081228 0.491103 0.270530 -0.008367 0.436570 -0.518691 0.010740 0.127365 -0.201189 0.237496 0.432387 0.130355 0.095936 0.655569 -0.489443 0.258311 0.168717 -0.118762 -0.398500 0.437887 -0.386980 -0.164690 0.287404 -0.042913 -0.190267 -0.465310 -0.167531 -0.572712 -0.682641 -0.396172 -0.924000 0.284650 -0.298887 0.188294 0.512762 0.338259 0.175442 0.379522 -0.020565 0.002225 -0.272708 0.463588 0.289957 -0.182620 0.210087 0.219581 -0.043534 0.346543 -0.376366 0.357590 0.183907 0.150800 0.405901 -0.098592 -0.392894 0.446768 -0.320953 -0.415022 0.388875 0.089445 0.164187 0.473145 0.436858 0.470427 0.194966 0.287496 -0.112317 0.029529 -0.579325 -0.368142 0.501031 -0.120020 0.085211 0.074982 0.294608 -0.432133 
1089 0.100369 0.512537 -0.315979 -0.030514 -0.345209 0.400735 -0.099197 -1.589645 0.877380 0.028561 0.452929 -0.614754 -0.317552 0.000546 0.071885 0.241117 0.221006 -0.000360 0.542908 -0.363035 -0.019411 -0.010113 -0.495143 -0.484195 0.204053 0.066828 0.395579 0.208816 0.407129 -0.534435 -0.447518 -0.153873 0.135433 -0.636404 -0.228535 -0.432408 0.047025 0.476047 -0.046613 0.275408 -0.352200 -0.513178 -0.228943 -0.083333 0.393935 -0.055890 -0.624485 0.124392 -0.139835 0.257630 -0.530818 0.110491 -0.185103 0.005813 0.014919 -0.455934 -0.025868 -0.026420 -0.239782 0.180430 -0.018347 0.027066 0.236596 0.313628 0.458810 0.601347 -0.493651 -0.473385 0.351417 -0.001051 -0.257598 -0.145097 -0.364982 -0.498505 0.007016 -0.396023 -0.177123 0.138805 0.209850 -0.405117 -0.065979 -0.040989 -1.027599 -0.053753 -0.633520 0.564831 -0.170679 0.437723 0.560294 -0.462169 0.102184 0.097464 -0.156315 0.538391 0.005542 -0.051275 0.148738 0.081862 -0.351421 0.129047 0.499035 0.654239 -0.442216 -0.429207 -0.016503 -0.863190 -0.260175 -0.054143 0.142201 -0.040367 -0.153463 -0.140367 0.467962 0.416912 -0.368762 0.326534 0.431025 0.315295 -0.173703 0.176370 -0.579360 -0.590148 0.249453 -0.297170 0.319213 0.399695 0.090982 0.245514 
1213 -0.517027 0.581600 0.251076 -0.582336 -0.080643 0.885568 0.112064 -0.825288 0.316091 0.423285 -0.296241 -0.625653 -0.222644 -0.504798 0.296975 0.237614 0.067366 0.144052 0.827780 -0.249928 0.321669 0.468811 -0.147305 -0.494513 -0.296141 -0.395323 0.363191 -0.289360 0.063906 0.185852 -0.060538 -0.371986 -0.029803 0.015918 0.631911 0.179233 0.682792 0.085115 -0.632325 0.075882 0.097296 -0.242343 -0.074934 -0.562930 0.461702 -0.030937 0.186900 -0.160806 -0.194454 0.295227 -0.316483 -0.050595 0.264479 -0.120197 -0.632844 -0.388372 0.229913 -0.590519 -0.004449 -0.108346 0.409031 0.156104 0.007593 0.172715 0.690169 0.599659 -0.520107 0.207252 0.305408 -0.055981 0.301189 0.013539 0.279657 -0.300345 0.304068 -0.168030 0.157071 -0.108030 -0.306484 0.086706 0.131841 0.252891 -1.645660 -0.477761 0.196506 -0.540479 0.540433 0.168316 0.809690 0.598946 -0.315454 -0.063403 0.262745 0.159084 -0.538354 0.387591 0.495607 0.509135 -0.096357 0.193912 -0.367637 0.083753 -0.194672 0.111821 0.476622 -0.565419 0.421461 0.157030 -0.046552 -0.001881 -0.018401 -0.159884 0.211436 -0.313712 -0.223994 -0.131534 0.126857 0.671237 -0.258683 -0.074434 -0.380475 -0.431822 0.293273 -0.028079 0.404423 0.011003 -0.026866 -0.167495 
1265 -0.429802 -0.371407 -0.539113 -0.558822 0.211563 -0.000205 -0.267928 -1.215868 0.341612 -0.094537 -0.178732 -0.387719 0.126053 -0.038084 -0.050727 0.371707 0.241846 0.722067 0.543505 -0.231670 -0.070099 0.138974 -0.664262 0.309120 0.025061 -0.329396 -0.036494 -0.989865 0.248187 -0.353236 0.250432 -0.424908 0.094559 -0.034048 0.255975 -0.063647 0.043123 0.358244 -0.018370 -0.461183 -0.191404 -0.008803 0.211764 0.372068 0.546891 0.823412 0.357647 0.216117 0.556466 0.188875 0.140928 0.281765 0.401368 0.444320 -0.361364 -0.157956 0.018453 0.133604 0.153856 0.377667 0.094451 0.490244 0.240471 0.369281 -0.165241 0.870003 -0.276380 0.448282 -0.188668 0.078808 0.149612 -0.918899 0.017790 -0.403446 -0.670004 -0.467386 0.212230 0.188552 -0.603301 -0.382714 -0.023795 -0.323622 -1.001791 -0.382063 -0.280441 0.200926 0.606367 0.105831 0.727108 -0.123030 -0.004664 0.161196 -0.193196 -0.558842 0.511171 0.159640 0.002975 0.322659 -0.016589 -0.072576 -0.335922 -0.602072 -0.374085 -0.209433 -0.240253 -0.214684 0.267312 0.920399 0.005005 -0.256337 0.267641 -0.326456 -0.457065 0.050295 0.569269 0.025245 0.511350 -0.240951 -0.106642 0.048563 -0.115341 -0.004706 0.113979 -0.365895 0.202107 0.207284 -0.601320 0.036707 
3578 -0.091499 -0.483749 -0.036445 -0.309823 -0.287176 -0.174577 -0.425718 -0.718209 -0.136175 -0.387044 0.221378 -0.180797 0.383531 -0.119135 0.486451 -0.189091 0.106311 0.377508 0.307076 -0.029563 -0.716930 0.307552 -0.388398 -0.086648 0.161848 -0.533235 -0.688101 0.167043 0.250209 -0.386129 -0.136936 0.117259 0.161556 0.119481 0.146982 -0.396793 -0.326832 0.011798 -0.582743 0.299306 0.247673 -0.203211 0.137556 0.146022 -0.641272 0.382695 0.138225 -0.013611 0.023805 -0.341945 0.317118 -0.068339 -0.728864 0.575471 0.179728 -0.375742 -0.082202 0.533321 -0.016107 -0.436742 0.763024 -0.244628 -0.334799 0.043568 0.050825 0.274966 -0.177698 0.161393 0.035023 -0.731067 -0.466171 0.003423 -0.395212 -0.466906 0.050625 -0.445637 0.538199 -0.561839 -0.106062 -0.302687 -0.038580 0.040309 -1.112197 -0.489405 0.427719 -0.013802 -0.155425 0.090053 0.394745 0.126559 0.869474 0.218821 -0.107615 0.522212 -0.130957 0.043763 0.666859 0.598705 0.475113 -0.992348 -0.224878 -0.368540 -0.570182 0.285504 -0.063072 -0.212781 -0.372018 0.132857 -0.373436 0.424960 -0.639900 0.215145 -0.303454 0.091069 0.162393 -0.386791 0.198803 -0.017784 -0.277602 -0.481942 -0.030155 -0.044626 -0.649427 -0.309887 0.502761 -0.422136 -0.462282 -0.650935 
293 0.427602 0.520094 -0.132241 -0.385569 0.542253 0.195657 0.281462 -0.792154 -0.071367 0.043603 -0.094720 -0.605868 -0.032318 0.364717 -0.224671 0.282994 -0.139652 -0.106765 0.413328 -0.033039 -0.022238 0.004710 -0.292006 -0.765101 -0.167324 -0.189982 0.002432 0.120385 0.371499 0.191324 0.173382 0.216939 0.088052 -0.195766 0.538045 0.026909 0.353354 0.497617 0.761402 0.035474 0.449724 0.527211 0.029873 -0.121519 0.109384 0.286851 -0.089297 0.135889 -0.305176 0.296593 -0.004657 -0.295050 -0.320808 0.087492 -0.117768 -0.030122 0.016802 -0.191975 0.074797 0.195895 0.117783 -0.400533 -0.030017 0.522144 0.070609 0.743448 0.112369 -0.131395 -0.340408 -0.340363 0.039473 -0.375036 0.049431 -0.117175 0.239064 0.044068 -0.017209 -0.139219 0.348301 -0.572391 0.247607 -0.318925 -0.919752 0.489064 0.010282 -0.174621 -0.631058 -0.088297 1.059658 0.067152 0.058721 0.570085 -0.535461 0.015167 0.149941 -0.001117 0.553514 0.637376 0.492891 -0.161933 -0.257817 0.888761 0.119513 -0.287214 0.438709 0.230897 -0.110129 -0.113134 0.584239 -0.732504 -0.223967 0.472999 -0.499407 0.184538 -0.034084 -0.374092 0.193831 0.021929 -0.532484 -0.402706 -0.236205 0.050775 0.223248 -0.026670 -0.395691 -0.257519 0.272993 0.480805 
588 0.078110 0.114438 -0.753592 -0.352885 0.103268 0.583760 -0.127848 -1.095816 0.082173 -0.389070 -0.154892 -0.008344 0.479758 0.234308 -0.566943 -0.708831 -0.600018 -0.099958 0.645962 0.286470 -0.521321 0.210407 -0.312225 -0.084406 -0.267367 -0.797076 -0.410660 -0.143366 -0.366402 -0.201243 0.232867 0.608030 0.402542 -0.126119 0.145742 -0.619511 0.342518 0.245320 0.280811 -0.120889 0.023245 0.569364 0.076438 -0.228529 -0.423658 -0.398654 0.211624 0.226871 -0.361841 0.392084 0.184181 -0.113627 -0.224862 -0.090545 0.002373 0.213886 -0.618935 -0.023414 0.660490 0.460254 0.181743 -0.339009 0.548170 0.208170 -0.237963 -0.159570 0.298646 -0.001328 -0.935410 0.091163 -0.357205 -0.430435 -0.011533 -0.397278 0.091493 0.382179 0.311728 0.537134 -0.101880 -0.552446 -0.197417 0.151211 -0.990756 -0.030997 -0.047758 0.372361 -0.369123 0.304410 0.800947 0.358666 -0.075652 0.060609 -1.415830 0.368708 -0.105014 -0.108983 -0.010280 -0.083044 0.022828 0.346012 0.359840 0.397259 0.039680 0.048286 0.373985 -0.084282 -0.474383 0.498076 0.322208 -0.096085 0.244586 -0.145871 -0.087425 0.247533 0.155751 0.084735 0.258859 -0.017486 -0.237847 -0.167903 -0.405795 -0.209972 1.267402 0.298467 0.271401 -0.341227 -0.469881 0.025749 
111 -0.255912 0.694569 -0.707134 -0.549963 -0.140094 0.761508 0.068866 -0.816509 0.332474 0.019882 -0.134965 -0.201747 0.905073 0.420090 -0.385312 -0.091481 0.277441 0.168175 0.275396 -0.567467 -0.652238 0.588964 -0.173169 -0.026791 0.335940 0.147133 -0.026129 -0.173425 0.142710 -0.556843 0.264257 0.224327 0.510227 -0.044506 0.438041 -0.519540 0.226931 0.598088 0.251635 -0.067710 0.101802 0.345392 -0.246232 -0.462343 0.543218 0.394900 0.066770 -0.459631 -0.160660 -0.113536 0.033622 0.109195 -0.190369 0.711835 -0.051337 0.136874 0.138423 0.167934 -0.536298 0.630702 0.244101 -0.202405 0.055982 0.237294 0.555078 0.194244 -0.229187 -0.011943 -0.123356 -0.186735 0.363372 -0.820431 -0.175750 0.021644 0.180817 0.286532 -0.015566 -0.328150 -0.260692 0.174897 0.095173 0.316143 -0.960693 0.134608 -0.015395 -0.312814 -0.713663 -0.493845 0.802868 0.294581 -0.586121 -0.562828 -0.498697 -0.180033 -0.071137 0.323172 0.028640 -0.668784 -0.541954 0.160707 0.457808 1.040745 -0.012706 -0.566313 0.497851 0.003141 -0.206099 -0.046510 -0.102049 0.175499 0.129403 0.598430 0.534723 -0.315296 0.340674 0.035906 -0.138729 0.390057 -0.368202 -0.236772 -0.076571 0.306859 -0.076496 -0.291671 -0.176088 0.065157 0.600255 -0.219499 
79132 0.667985 0.388624 0.747684 0.072899 0.163357 -0.347812 -0.548623 -1.253328 0.314576 0.181864 -0.213887 -0.274958 -0.097354 0.316446 0.658070 -0.064973 0.295946 -0.339084 0.228983 0.118708 0.537926 -0.471268 0.402315 0.153854 -0.354302 -0.308020 -0.460354 -0.362190 -0.339046 -0.348370 -0.174820 0.583201 -0.353866 0.009441 0.265259 -0.076620 -0.526317 -0.213217 -0.524841 -0.143725 0.412169 0.415713 -0.488564 -0.601343 -0.308805 0.783232 -0.492735 0.452514 -0.498619 0.388953 -0.081323 -0.193823 -0.533047 -0.341242 0.103157 -0.320004 -0.025835 0.213914 0.008332 -0.176811 0.068233 -0.350069 -0.040495 0.941829 0.042393 -0.245008 0.741618 -0.531191 0.305166 -0.282618 0.468840 0.277363 0.086111 -0.452559 0.158447 0.887808 0.151354 -0.455066 -0.682541 0.129483 0.172652 -0.383531 -2.064331 -0.038259 0.394149 -0.321578 -0.327104 -0.021057 -0.218905 0.448458 -0.000464 -0.377179 -0.367374 -0.573516 -0.346260 0.048233 -0.157424 0.155437 0.126675 0.000975 -0.016119 0.504688 0.340748 0.323053 0.139389 -0.324731 0.011042 0.077513 0.603912 0.473948 0.059218 -0.043486 0.122766 -0.109082 -0.389136 0.060702 -0.595496 -0.085781 -0.310898 0.655530 0.151058 0.162717 -0.117564 -0.616681 -0.220144 0.372266 0.175060 -0.265598 
1291 -0.115780 -0.320261 -0.223991 -0.417440 -0.364185 -0.331520 0.354768 -1.040262 -0.272540 -0.050928 -0.048772 -0.586666 -0.186571 0.085839 0.206663 0.785635 -0.215144 0.269304 0.796607 -0.219985 0.344759 0.079675 -0.167715 -0.073171 0.118346 -0.694674 -0.065173 0.130992 0.158426 0.366398 0.263706 0.020492 0.356194 -0.324403 -0.102119 -0.150916 0.155908 0.122615 -0.060762 -0.269794 -0.391335 -0.872754 0.205760 0.449282 0.672640 0.310540 -0.174518 -0.256829 0.226532 0.480033 0.292662 -0.153122 -0.536375 0.479864 -0.567349 0.010965 -0.493192 0.369437 0.135056 -0.045133 -0.002291 1.028055 -0.294896 0.809431 0.021833 0.712341 -0.277183 0.507200 0.147792 -0.234973 -0.094536 -0.483861 -0.024927 -0.501678 -0.215298 0.112761 -0.039465 0.196674 -0.166638 -0.138372 0.138950 -0.259490 -1.330164 0.340280 0.271118 0.893509 0.199482 -0.183389 0.548363 0.139730 0.054101 0.255341 0.048005 -0.164202 0.390253 -0.125822 0.229036 0.435271 0.379931 -0.158298 -0.230268 0.482238 -0.468868 0.057322 0.588411 -0.469648 0.391185 0.787527 -0.093989 0.360866 0.104861 -0.306799 -0.766608 -0.537829 0.018245 -0.024331 0.432081 0.037721 -0.323961 -0.075666 -0.153698 0.253512 0.259075 0.340853 0.035055 -0.471199 -0.229589 -0.192440 
1036 0.069193 -0.097205 0.017343 -0.043463 0.500979 0.470779 0.243229 -1.380960 0.664830 0.142630 0.032897 -0.358512 -0.069408 0.116666 0.268866 0.290499 0.600990 -0.509681 0.812228 -0.212907 -0.212186 -0.061769 -0.146609 -0.270117 -0.231526 -0.580326 0.873765 -0.433170 0.239110 -0.255715 0.339060 0.005897 -0.443909 -0.108626 0.548992 -0.580613 0.046394 -0.162354 -0.188657 -0.143388 0.024879 -0.252787 0.232477 -0.586166 -0.406531 -0.390811 0.126913 -0.052604 -0.206194 0.043562 0.128574 -0.805254 -0.494952 0.351546 0.055229 -0.321184 0.031218 -0.342075 0.320047 0.483877 -0.108906 0.338293 -0.123452 -0.071844 0.480410 0.066396 -0.581724 0.202450 0.296001 0.047143 -0.408232 0.513916 0.494333 -0.154542 -0.265199 -0.192108 0.012226 0.106672 -0.168493 -0.255744 -0.443330 0.092040 -1.011419 0.347809 -0.454674 0.176468 -0.051305 0.250044 0.480887 -0.033540 -0.056118 0.105582 -0.457315 0.080517 -0.710493 0.455037 -0.114518 -0.125527 -0.362172 0.138647 0.342568 0.549657 -0.296696 0.227910 -0.165416 0.070320 -0.320346 0.192652 0.346115 0.003766 -0.524129 -0.481196 0.056763 0.647227 -0.041329 0.309754 0.207329 -0.150607 -0.262491 0.137186 -0.304087 -0.016328 0.881701 -0.245111 0.008648 0.429207 -0.004509 0.042148 
780 -0.067753 0.061259 -0.435245 -0.173741 0.284784 0.841726 0.188037 -1.335054 0.115351 -0.642967 0.785238 -0.366789 0.264264 0.345748 -0.417382 -0.430867 -0.294273 -0.217648 0.814040 0.128532 -1.034128 -0.456345 -0.145867 0.317212 -0.127561 -0.259608 0.426977 -0.243027 -0.542201 0.161813 -0.422732 0.552994 0.448363 -0.063223 0.137152 -0.195848 0.213157 -0.007530 0.142013 -0.104969 0.171138 0.252239 0.587581 0.172443 -0.091359 -0.115667 -0.744289 -0.191396 -0.372482 -0.246107 0.358409 -0.572818 0.304913 -0.658593 0.385523 -0.215947 -0.147341 -0.292766 0.144421 -0.106405 0.156439 0.465430 0.257072 0.341332 0.334791 0.240000 -0.676636 0.134594 0.385520 -0.207615 0.187881 0.117477 0.314904 -0.387768 -0.064441 -0.307145 0.262116 0.095610 -0.294145 -0.570630 0.084132 -0.164661 -1.323432 -0.359153 -0.252645 -0.035692 -0.164622 0.632437 0.537249 0.298611 -0.246055 -0.579006 -0.429884 0.328579 0.120454 0.124402 0.536090 0.481330 0.258279 0.556182 -0.428791 0.335947 0.377473 0.133684 -0.254560 0.473809 0.572852 -0.338413 0.162406 -0.335285 0.221693 -0.264740 0.300652 0.736038 0.176163 0.221510 -0.009339 -0.242915 -0.505229 -0.363990 0.209904 0.421857 0.074455 -0.070500 0.305196 -0.093616 0.536409 0.831246 
1200 -0.269783 0.239079 -0.061224 0.153513 0.381328 0.477319 -0.217667 -1.100359 0.395567 0.138699 0.287125 -0.560214 0.071045 0.630162 0.229022 0.636895 -0.100929 -0.048309 0.408331 -0.592381 0.116348 -0.129264 -0.343516 -0.489782 0.143626 -0.691614 0.007016 0.068876 0.565026 -0.579298 0.219560 -0.473907 -0.093968 -0.240397 0.765718 -0.907471 0.483518 0.127354 -0.196895 0.324253 0.049168 -0.202642 -0.027443 0.569983 0.165779 0.226881 -0.183646 -0.356676 -0.025610 0.138132 0.505785 -0.476927 -0.358520 -0.342656 -0.560330 -0.368030 0.387405 0.138040 -0.130538 -0.105642 0.188067 -0.112675 0.156742 -0.032763 0.479944 0.406798 -0.875484 0.125563 -0.285369 -0.640712 -0.034100 -0.181177 0.330934 -0.569305 -0.348688 0.290107 0.371781 0.157002 -0.180809 -0.532059 -0.475814 0.461151 -1.037333 -0.171679 0.054358 -0.601941 0.432462 -0.268423 0.516601 0.093084 0.213686 -0.267971 -0.005858 0.354174 0.046200 0.193964 0.377062 0.001879 0.456205 0.879015 -0.132929 0.426809 -0.219381 0.403789 -0.079784 -0.690803 -0.052683 -0.325897 0.081960 -0.265412 0.277282 -0.297626 0.589459 0.851798 0.249726 0.480995 0.522548 0.439202 -0.137694 0.358974 -0.103496 -0.154045 0.296562 -0.142361 0.749935 -0.228703 0.083598 0.152161 
2329 -0.752622 0.338057 -0.167833 -0.461410 -0.379438 -0.172067 -0.352443 -0.642804 -0.196381 0.041078 0.464904 -0.152375 0.043717 0.648851 0.037804 -0.424579 0.368140 0.536329 0.624597 0.422383 0.690646 -0.786806 0.007011 -0.122847 0.153017 0.019420 -0.075863 0.077078 0.117755 -0.024540 -0.213775 -0.299437 -0.130763 -0.073891 -0.012195 -0.125026 0.690055 0.159403 0.153479 0.238689 0.025366 -0.455847 0.564207 0.035009 -0.159988 -0.044977 0.537794 -0.152101 -0.397157 -0.557383 -0.779742 -0.911521 -0.054642 -0.140912 -0.311800 0.093192 -0.820817 0.432458 0.102844 0.265426 0.566707 0.149597 -0.290186 0.393180 0.263668 -0.431474 -0.017759 -0.125173 0.083116 0.205167 -0.243693 -0.410658 -1.023713 -0.115755 -0.000549 -0.481407 0.418841 0.065855 0.177424 -0.635913 -0.515866 -0.395570 -1.041977 -0.531046 0.004470 -0.205564 -0.104235 -0.374808 0.813724 -0.013211 0.338195 -0.610101 -0.072470 0.146209 0.012155 0.083857 0.380193 0.639273 0.134644 -0.260584 0.194087 0.575333 -0.278817 0.664113 0.140168 0.267524 -0.664640 0.292859 0.127648 -0.219044 -0.053139 -0.089839 0.224675 0.258592 -0.074836 -0.249480 0.250671 -0.219083 0.414737 -0.188720 0.208050 -0.513630 0.220787 -0.540727 0.244880 -0.131023 0.265145 -0.028721 
1682 -0.191075 0.437855 -0.505095 -0.582611 -0.076152 -0.448732 0.360737 -0.617912 -0.132200 -0.191614 -0.097538 -0.792564 -0.023913 0.339611 0.190651 0.083100 0.436597 -0.123302 0.414754 -0.114129 -0.291171 0.218255 -0.237449 -0.215850 -0.568421 -0.213769 -0.585540 0.210531 0.331544 0.486496 0.084786 -0.316923 0.008434 -0.627810 -0.135495 -0.039934 -0.123869 -0.401038 0.158757 -0.555562 0.700638 -0.012042 -0.002312 0.496761 0.113144 0.770112 0.322330 0.365842 0.080960 0.239515 0.313895 -0.697993 0.706684 0.246484 -0.159565 -0.042118 -0.538315 -0.440929 -0.066221 0.521505 0.374288 -0.082955 0.381869 0.690349 0.016727 -0.031473 -0.170428 0.150871 0.144683 -0.095963 -0.071774 -0.401173 -0.187917 -0.067140 0.139702 -0.935248 0.445289 -0.267068 -0.369237 -0.386416 0.033799 -0.334749 -0.776035 -0.067870 0.139806 0.586368 0.596062 -0.255417 0.226738 0.011176 0.317717 0.002582 -0.178745 -0.359674 -0.134797 -0.008560 0.198718 0.338958 0.037723 0.541533 -0.307018 0.629663 -0.201440 -0.193491 -0.069992 0.022421 -0.275650 0.283646 -0.755497 0.140267 -0.865295 -0.287828 -0.361791 0.508669 0.319802 0.259340 0.771743 -0.320061 0.072349 -0.392587 0.844810 -0.813210 -0.115126 -0.441086 -0.150876 0.172591 -0.058151 -0.121581 
778 0.688240 0.541985 -0.480126 -0.416549 0.333626 0.719876 -0.535467 -0.875722 0.484363 -0.321158 0.524858 -0.367495 -0.335388 0.111282 0.288563 0.106832 0.382228 0.181118 0.540475 0.145443 -0.325203 0.029735 -0.477765 0.219104 -0.235807 -0.150412 -0.094173 -0.183085 -0.066144 0.144631 -0.089621 0.246386 0.307391 -0.120064 -0.181993 -0.776254 -0.057647 0.271645 -0.054508 -0.259689 0.350539 -0.170113 0.073298 -0.248090 -0.307239 0.595873 -0.083823 -0.427954 0.172927 0.263613 0.812175 0.212681 0.164835 -0.361530 0.095394 0.049878 0.136565 -0.149344 0.049536 0.087905 0.528260 -0.118872 0.260611 0.195669 0.342918 0.632358 -0.089329 -0.125083 0.378669 0.090752 -0.410071 -0.018655 -0.367252 -0.352792 0.127455 -0.282537 0.142449 0.178792 0.413189 -0.997509 -0.721416 -0.156748 -0.678257 -0.110149 -0.430217 0.488775 -0.933396 0.387563 0.950951 0.262769 0.110829 -0.481042 -0.647686 0.120303 -1.105398 -0.376086 -0.119744 0.260920 -0.228637 0.325976 -0.443318 0.844294 0.263360 0.306200 0.247674 0.339955 0.055989 0.525510 -0.055226 -0.154497 0.423969 -0.361557 0.246358 0.065480 -0.191340 -0.390820 -0.517552 0.193806 -0.134175 0.154640 -0.521784 0.115527 0.096696 -0.123464 0.058187 0.104220 0.453606 0.384535 
4306 -0.074572 -0.202431 0.491845 -0.462016 -0.479408 -0.225390 -0.288524 -0.911028 -0.048297 -0.225620 0.050934 -0.166080 -0.687698 0.236173 -0.253579 -0.210427 -0.215309 0.124522 -0.013416 -0.051728 -0.362978 -0.314713 -0.840486 0.234721 -0.239378 0.410555 -0.189897 -0.231052 0.111458 -0.432375 -0.185909 -0.375705 -0.611524 -0.398159 0.050005 -0.044994 -0.334555 0.012702 0.139175 0.297249 0.219235 0.023987 0.787734 0.173896 -0.743985 -0.478717 0.591606 0.072460 0.125368 -0.231935 0.933705 -0.128143 -0.500969 -0.194979 0.077150 -0.321908 0.062289 0.149795 0.205682 0.157590 0.427257 -0.100900 -0.719339 0.169187 -0.162060 0.112683 -0.046612 -0.598772 0.117519 -0.278870 0.416417 0.315716 -0.022459 -0.286286 -0.026254 0.413645 1.151342 -0.680426 -0.059750 0.372511 0.663875 -0.045464 -1.213727 -0.355627 -0.191990 0.256095 0.725681 -0.015218 -0.065095 0.461060 0.418850 -0.298416 0.454515 0.051670 -0.385381 0.130745 0.463851 0.207362 0.354678 -0.188906 0.267112 0.234206 -0.795114 0.439515 0.078890 -0.384890 -0.213231 0.906151 0.348369 -0.375643 -0.099540 0.043115 -0.680920 0.408830 0.689024 0.073597 0.457895 -0.032570 -0.118429 -0.042304 0.044318 0.081410 1.175267 -0.461487 0.316875 -0.597394 -0.131514 -0.591799 
7361 0.373277 -0.267069 -0.310870 -0.918368 0.523403 -0.795019 -0.110674 -0.949245 0.099235 -0.077372 -0.334135 -0.529903 0.337676 0.488104 0.616838 -0.629829 0.366721 -0.044844 -0.165809 0.393746 -0.152824 -0.524552 0.282872 -0.336102 -0.168721 0.108332 -0.033307 0.147791 -0.869777 0.129525 0.344206 -0.249609 -0.705386 0.255670 0.254061 -0.076337 -0.379483 0.060040 0.266978 -0.555681 -0.116515 -0.083349 -1.099124 0.281194 0.091462 0.241140 0.081500 -0.418604 -0.051022 -0.684728 0.081187 0.772413 -0.154831 -0.131956 0.429023 -0.503273 0.467295 -0.397608 -0.025906 -0.305313 0.095489 -0.363450 -0.101890 0.463060 0.588184 0.226974 0.224416 -0.782785 0.037166 -0.038480 0.221009 -0.111364 -0.175287 -0.107780 -0.290238 -0.117966 0.591619 -0.345096 -0.554084 0.047524 0.191357 -0.505174 -1.038125 -0.519392 0.070139 0.341824 -0.507051 0.236163 0.488601 0.150504 -0.406591 -0.014273 0.334300 -0.197964 0.059548 -0.197002 0.122940 -0.019613 0.135636 0.256040 0.161429 0.075312 0.123315 0.012433 0.399040 -0.401692 -0.528758 -0.039115 -0.092768 0.328129 -0.352493 0.108241 -0.066378 0.108400 -0.673831 0.666241 0.425056 0.219891 0.532068 -0.091173 -0.907948 -0.150190 0.170019 -0.605163 -0.208713 0.157253 -0.266677 -0.072719 
1206 0.334507 0.165180 -0.268867 -0.346890 -0.080606 0.409984 0.022344 -0.864186 0.849230 0.368918 -0.067640 -0.096900 0.003538 0.755976 0.488886 0.463050 0.045648 0.171801 0.329361 -0.181264 0.414028 0.319141 -0.092979 -0.127335 0.001599 -0.217652 -0.111605 0.399554 -0.087363 -0.547906 -0.105500 -0.745363 0.383008 0.082840 0.344628 -0.340170 0.725920 0.095107 -0.231533 -0.189242 -0.005179 -0.671488 0.139819 0.560959 0.125973 0.391839 0.232562 -0.285403 0.591082 0.038125 0.415670 0.433183 -0.083330 0.024813 -0.286454 -0.622874 -0.408891 -0.400037 0.062313 0.058379 0.075671 -0.070614 -0.114501 0.223553 0.358533 0.678982 -0.944174 -0.212505 -0.170159 -0.907237 -0.401019 0.138313 0.269246 -0.577600 -0.097044 0.037286 0.644421 0.219813 -0.587450 -0.437988 -0.658901 0.072818 -0.947637 0.481260 -0.036191 -0.118186 0.243542 -0.223169 0.868136 0.432966 0.401377 -0.043860 -0.385796 -0.263415 -0.069253 0.456272 -0.082874 0.041998 0.298701 0.760997 -0.176623 0.101559 0.154959 -0.082295 0.544421 0.161691 -0.301247 -0.115709 0.123428 -0.412344 -0.045743 -0.460992 0.269600 -0.050343 0.163786 0.699914 0.788967 0.426347 0.396860 0.257002 -0.105834 -0.121590 0.565597 0.410743 0.066878 -0.282080 -0.349178 0.231870 
2997 0.113137 0.333392 -0.499759 -0.960232 -0.186811 -0.436451 0.557573 -0.674718 -0.221158 -0.350143 0.038442 -1.076328 -0.056804 0.513327 0.318954 -0.489061 0.661591 0.463073 0.165826 -0.237700 0.628629 0.495039 -0.563515 0.680272 0.973550 0.247380 -0.376329 -0.136818 0.481339 0.156351 -0.297062 -0.447939 -0.289038 0.609890 -0.147478 0.224508 0.001714 0.279687 -0.520087 -0.317662 -0.419079 0.189031 0.120456 -0.396168 0.132321 0.406166 -0.193189 0.176289 -0.539543 0.074160 0.233202 0.375910 -0.815764 0.470021 0.002853 0.026203 -0.159034 -0.242679 0.348030 0.425310 0.706905 -0.204368 0.871449 0.805708 0.236458 -0.003445 -0.220067 0.045158 0.747364 -0.352797 0.372056 0.116888 -0.116194 -0.389136 -0.045610 -0.092635 0.690742 0.135862 0.255557 0.023865 0.374278 -0.106464 -0.764053 0.072077 0.063013 -0.305927 -0.381664 0.410658 -0.251019 -0.303278 0.476758 -0.547745 -0.126537 0.456880 -0.348594 0.174952 0.546192 0.261516 0.748908 0.435878 -0.267984 0.258970 -0.576746 0.266905 -0.044607 0.173725 -0.518933 0.409313 0.157952 -0.097328 -0.050669 0.597872 0.597414 0.178730 -0.222683 -0.184169 0.400757 0.377981 0.307356 -0.560449 -0.203728 0.004118 0.312318 -0.149390 -0.074288 0.367503 0.005391 -0.402715 
1617 0.235630 0.073469 -0.251779 -0.421782 -0.089881 -0.256258 0.469608 -0.812418 0.401774 0.088512 -0.413316 -0.700456 -0.099850 0.284080 -0.632900 0.326909 0.021238 0.113195 0.720538 -0.274783 0.357401 -0.720743 -0.911923 0.239315 -0.326642 -0.021351 -0.260835 0.116856 -0.215755 0.106811 0.201707 -0.164392 -0.127075 -0.287832 -0.196164 -0.077403 -0.250982 -0.218857 -0.339123 0.480768 -0.553749 0.163495 0.119081 0.304912 0.489312 0.407726 0.256453 -0.061915 -0.183276 -0.114513 0.820372 0.102288 0.167432 0.030825 -0.014048 -0.441766 -0.319907 0.221905 -0.167869 0.191174 0.380576 -0.007237 0.519365 0.317540 0.895565 0.248714 -0.854822 0.777798 0.289333 0.271515 -0.441840 -0.039956 -0.492540 0.205267 0.800578 -0.492741 0.343160 0.104796 0.026818 -0.664646 0.272824 -0.441145 -1.092515 0.084213 0.053948 0.515911 -0.826309 -0.382593 0.260359 0.137197 -0.049051 0.513316 -0.026557 -0.423562 0.194556 0.467400 0.597227 0.216052 0.090847 -0.407813 0.152778 -0.067409 -0.438230 0.052122 0.055942 -0.099166 -0.662411 -0.551001 -0.878246 -0.091238 0.261766 -0.158384 -0.643787 -0.195463 -0.096075 0.450651 0.382812 -0.161900 -0.337409 -0.569903 0.310475 0.325138 0.420012 0.082238 -0.326624 0.338942 -0.061105 0.393761 
2324 -0.345408 0.880363 0.428889 -0.106395 -1.004588 -0.558444 0.367076 -0.337731 0.584894 -0.499970 -0.098535 -0.291720 0.067549 0.808173 -0.016077 0.267649 -0.176098 0.199739 0.403795 0.091995 -0.387920 0.090989 -0.457906 -0.351700 -0.129945 -0.598889 0.089761 -0.290733 0.391029 -0.062370 -0.168296 0.130877 -0.167054 0.451533 0.195432 -0.198320 -0.096154 -0.050329 0.039028 0.132513 -0.840461 -0.357278 0.861029 0.333657 0.133270 0.421884 0.343179 -0.346879 0.617946 0.171661 -0.374352 0.057612 -0.242451 -0.439150 -0.088975 0.247486 -0.802830 -0.189517 0.400473 -0.100400 0.168192 -0.329626 0.070753 0.115115 0.160760 -0.639568 0.148775 -0.051086 -0.191239 0.183706 -0.294649 -0.467032 -0.743122 -0.681122 -0.340984 -0.494661 -0.029192 0.035936 0.109241 0.041755 0.169358 -0.280860 -0.926148 -0.770037 0.166097 0.348232 0.937486 -0.301694 0.391329 -0.142895 0.916489 -0.384800 -0.772483 -0.497811 0.021524 0.516987 0.601368 -0.009531 0.540937 -0.754722 -0.200338 1.111923 -0.498802 0.157963 0.246317 0.220125 -0.284840 0.450333 -0.319019 -0.262537 -0.045866 0.385668 0.103814 -0.113151 0.368371 -0.139726 0.061339 -0.224249 0.166424 0.092791 0.479761 -0.390247 0.205611 -0.265813 -0.051903 0.478136 0.004700 -0.129314 
1258 -0.485741 -0.444261 -0.371941 0.376172 0.249473 -0.477594 0.334510 -1.602031 0.145627 0.134882 -0.030549 -0.366111 -0.087242 -0.298232 -0.477046 0.462209 -0.064408 0.678980 0.818126 0.000525 0.114621 0.019425 -0.378837 -0.293609 -0.585397 -0.791043 0.130701 -0.170950 0.283178 -0.421019 0.090898 0.166107 0.068290 0.702641 0.318803 -0.597634 -0.001012 0.277648 0.140058 -0.312144 0.342562 -0.290312 0.232765 0.202517 0.135851 0.707303 -0.486044 -0.051601 0.374070 0.011454 0.220515 0.246562 0.159672 0.137529 0.216639 0.154411 -0.303413 0.179656 0.377730 0.120050 0.210107 0.450514 -0.369789 0.518855 0.227455 0.321790 -0.166286 0.065693 -0.308977 -0.389930 -0.004527 -0.029480 -0.208775 -0.198501 -0.130416 -0.234346 0.089781 -0.087456 -0.163870 -0.892980 0.215359 0.315075 -0.971888 -0.243592 0.731213 0.393746 0.483587 0.250032 0.690599 0.655489 -0.581495 -0.027749 -0.110863 -0.359622 0.147174 -0.563337 -0.003616 0.770851 0.187930 0.400459 0.530976 0.107436 0.138304 0.245563 -0.062227 -0.409305 -0.328622 0.306298 -0.270428 0.093919 0.528379 -0.686448 0.266266 -0.237020 0.402505 0.237064 0.344631 0.063387 0.585494 -0.301008 0.132835 -0.194481 0.254195 0.359404 0.593067 -0.006359 0.070704 -0.162034 
377 0.004905 -0.027816 -0.820054 0.242206 0.213442 0.672010 -0.220838 -0.964657 0.151075 -0.196557 -0.211105 -0.800793 0.217231 -0.018417 -0.403269 0.246538 0.010586 0.400130 0.442488 0.169795 -0.604890 0.163888 -0.504306 -0.330674 -0.212980 -0.494825 0.271393 0.483119 -0.127773 0.392673 0.085859 -0.211244 -0.067911 -0.139615 0.629944 -0.424734 -0.117501 0.579032 0.610452 0.052554 0.497087 0.145166 -0.066173 -0.008338 -0.901083 -0.210427 -0.364215 0.177094 -0.765102 0.087281 0.724223 0.681981 -0.188568 0.119073 -0.125751 -0.013305 -0.143294 0.108333 -0.454853 -0.029017 0.156277 -0.190920 0.210305 0.331387 -0.283063 -0.176604 -0.254133 -0.100008 -0.568785 -0.806489 -0.158779 -0.118157 -0.005553 0.458123 0.300046 -0.161105 -0.147918 0.485939 0.012688 0.109987 -0.115014 0.457643 -1.241953 0.059932 -0.224955 -0.396500 -0.021251 -0.149939 0.497398 -0.015336 -0.881305 0.151215 -0.908164 -0.449398 0.093544 -0.017988 0.233511 0.091799 -0.621872 -0.118907 -0.409651 0.378406 0.161514 0.043765 -0.458690 -0.287149 -0.225591 0.134056 0.347527 0.114651 -0.255171 -0.023653 -0.299695 0.097187 0.120211 -0.758295 0.206261 0.308822 -0.244819 -0.441292 -0.096262 0.359293 0.424549 -0.122759 -0.123926 0.040636 0.060346 0.354579 
1961 -0.238551 0.541433 0.213340 -0.536689 -0.093988 -0.524013 -0.009661 -0.919229 1.045389 0.063321 -0.239029 -0.649889 -0.426746 0.013077 0.194012 -0.289194 0.534596 -0.537587 0.623222 0.300636 -0.092436 0.169754 -0.258738 -0.183523 -0.278980 -0.634595 -0.156450 -0.245566 -0.780837 0.193796 0.510757 0.270604 0.129191 0.306357 -0.386191 0.240412 0.226811 0.248597 0.350477 0.429528 0.051124 0.286310 0.256707 0.266394 -0.743017 0.133392 0.771222 -0.410497 0.368473 -0.003383 0.597825 0.061051 -0.078598 -0.367516 0.052374 0.155556 -0.177507 0.105695 0.403628 0.302515 0.578301 0.282635 0.140864 0.273287 -0.222317 -0.185186 -0.696824 0.872414 -0.083535 0.164728 0.257953 -0.317591 -0.819561 -0.041662 0.126414 -1.149145 0.381088 -0.135577 -0.050890 0.373411 -0.172585 -0.031936 -0.928764 -0.140662 0.343064 0.711827 -0.479083 -0.394642 0.465600 0.359387 0.341925 0.400488 -0.457156 0.159153 0.506457 -0.301316 0.038652 0.064386 -0.343462 0.234781 0.335227 0.230261 -0.127274 0.137381 0.060224 0.092567 -0.077516 -0.560102 0.161646 -0.371588 -0.181718 -0.429229 0.465562 -0.315126 0.607921 0.114351 0.972042 0.611620 -0.235391 0.104088 0.540427 -0.174537 0.050647 -0.109070 0.398472 -0.250307 -0.019588 -0.560957 
912 0.754526 -0.451729 -0.693475 -0.371567 -0.280640 -0.366112 -0.006060 -0.932629 0.275858 -0.069396 0.002760 -0.582591 0.186761 -0.442218 -0.535693 0.300656 -0.684198 -0.106498 0.656708 -0.008952 -0.379170 -0.157957 -0.539574 -0.050923 0.234346 0.109391 0.653571 -0.152014 0.417471 0.037131 -0.224561 0.069679 -0.050301 -0.470477 -0.373777 -0.449546 -0.025126 0.044171 -0.277703 -0.045021 -0.293591 0.752075 -0.295083 -0.176879 -0.989557 0.469409 -0.059783 0.180301 -0.175034 0.165176 0.359633 -0.251291 -0.206245 0.139909 0.139354 -0.479334 -0.375330 0.037646 0.489264 0.184002 0.878226 -0.417413 0.110522 0.366420 0.467805 0.116210 -0.305023 -0.245486 0.451302 -0.257787 -0.661859 0.218409 -0.071887 -0.427475 0.072198 -0.984443 0.464742 -0.143990 0.309555 -0.361565 -0.467000 0.262551 -0.655084 -0.291662 -0.298794 0.755022 0.076889 0.430227 0.544821 -0.049541 -0.424441 -0.171011 -0.066875 0.423342 -0.521017 -0.218437 -0.086825 0.382481 -0.117039 0.741062 0.152072 0.588246 -0.569265 0.279361 0.204265 -0.021693 -0.003477 -0.298967 0.366552 -0.205348 0.660684 -0.716927 0.313457 0.149652 0.056551 0.386205 0.707308 0.456064 -0.023965 0.285590 -0.168439 -0.040081 -0.003990 0.519318 -0.245682 0.320266 -0.225030 0.420282 
1208 -0.020955 0.005516 -0.132604 -0.486817 -0.177806 0.121931 0.480838 -1.317790 0.781448 0.845127 0.077352 -0.758121 -0.443838 0.158983 -0.382886 0.094201 -0.005507 0.175256 0.748541 -0.885924 0.226837 -0.251822 -0.321008 -0.666060 0.348563 -0.364257 -0.185480 -0.140090 0.002776 -0.831330 -0.209158 -0.191466 0.260799 -0.009443 -0.056199 -0.060537 0.547657 0.142400 -0.199996 0.143221 0.129860 -0.175943 0.115793 0.238912 0.220257 0.492215 0.278127 -0.417552 -0.278175 0.209807 -0.014555 -0.003221 -0.058664 0.274680 -0.225277 -0.535450 0.273723 0.062120 0.615183 -0.573732 0.251058 -0.297711 0.427725 -0.060223 0.165658 0.562477 -0.704503 -0.018602 -0.186541 -0.538405 0.064272 -0.392507 0.424170 -0.285287 0.281144 -0.134067 0.059118 0.382854 0.405686 -0.528389 -0.607287 0.003082 -1.150794 -0.639675 -0.208789 0.322023 0.202386 0.464081 0.762277 0.475725 -0.116639 -0.093219 -0.526085 -0.078432 -0.298813 0.155846 0.095621 -0.000221 0.457186 0.343219 -0.519562 0.498375 0.425393 0.013898 0.660261 0.163499 -0.066572 -0.166378 0.247187 -0.499239 0.354492 -0.584976 0.066725 -0.260725 0.064317 -0.196819 0.207668 -0.042120 -0.442883 0.307591 0.003730 -0.393243 0.042368 -0.114149 0.221075 -0.386418 -0.220985 0.063066 
595 0.033832 0.622607 -0.141357 -0.376829 0.536588 0.756919 0.162789 -1.206447 -0.382090 -0.501615 0.101774 -0.409540 0.280017 0.148460 -0.239097 -0.080441 -1.051353 0.467275 0.349888 0.345067 -0.358509 -0.266912 -0.423629 0.066413 -0.569766 -0.321207 -0.201798 0.374338 -0.534646 -0.186525 0.517031 0.469388 0.113922 -0.323391 -0.258098 -0.360120 -0.175148 0.132654 0.273408 -0.502992 -0.138773 0.084943 0.031217 -0.604766 -0.529396 -0.872822 -0.024109 -0.015825 -0.240322 0.912735 0.237616 0.385955 0.093463 -0.155400 0.188547 0.189183 -0.195977 -0.389471 0.376682 0.403084 -0.326238 -0.315354 0.743592 0.127683 -0.314045 0.332514 0.212111 -0.309534 -0.402289 -0.360319 -0.364055 0.090435 -0.359466 0.098017 0.225843 -0.149689 0.377207 -0.048833 0.351981 -0.342850 -0.079313 0.031902 -1.182477 -0.369955 -0.402686 -0.302890 0.111395 1.170990 0.552655 0.348271 0.033194 0.383713 -0.875411 -0.133206 -0.444364 -0.234233 0.226457 0.152780 0.281638 0.456395 0.025029 0.377836 -0.305461 -0.033255 0.300933 0.279622 -0.235769 0.224799 -0.169689 -0.225670 0.100458 -0.140985 0.247634 0.330064 0.154958 0.464772 0.097804 -0.301299 0.056315 1.303847 0.000721 -0.581884 0.524507 0.365330 -0.197316 -0.464083 0.188000 -0.001892 
3147 0.665371 0.426759 0.015577 -0.912480 -0.157574 -0.483094 -0.401523 -0.989520 -0.146437 -0.725668 0.102813 0.134456 -0.244063 -0.058585 0.239936 -0.192593 0.164807 0.544944 0.962072 0.358373 0.344902 0.320540 -0.531879 -0.465218 0.110148 0.450708 0.011545 0.601481 -0.133976 -0.249345 -0.512020 -0.133353 -0.265255 0.583906 -0.297430 0.264652 -0.445241 0.542902 0.107436 0.099535 0.195437 0.485764 -0.429376 -0.311136 -0.080446 -0.410115 0.040867 0.688412 -0.170931 0.023679 0.532160 1.002547 -0.519775 0.460038 0.006289 -0.577622 -0.366470 -0.244973 0.482410 0.050135 0.040665 -0.426966 0.209362 0.509936 -0.210049 -0.243767 0.187542 -0.036998 0.159062 -0.139959 0.318959 -0.197610 -0.472507 -0.387489 -0.130040 0.058306 0.592584 -0.123037 0.378568 -0.617822 -0.316389 -0.076513 -0.946533 -0.476134 0.498028 -0.071654 -0.433085 -0.413377 0.471748 0.205279 0.721953 0.216855 0.756506 -0.503973 0.232448 1.366524 0.625738 -0.198638 -0.106965 -0.164235 -0.165677 0.042527 -0.575974 -0.017834 0.162678 0.407959 -0.175156 0.328083 -0.117405 0.027224 -0.521426 -0.053880 0.112039 -0.016978 -0.004928 -0.370198 -0.522907 -0.269102 -0.760488 -0.049298 0.224004 -0.186011 0.222249 -0.108007 0.776101 0.004809 -0.476371 -0.521111 
2716 0.149487 0.527397 0.519393 -0.429886 -0.030786 -0.450830 0.071730 -0.638918 0.134857 -0.827123 0.253348 -0.829007 -0.411169 0.268983 -0.314517 -0.026810 0.129948 0.332848 -0.037275 -0.006933 0.540133 0.284810 -0.257650 0.107233 -0.264958 -0.261136 -1.012642 0.286347 0.298173 0.328015 -0.190934 0.244335 -0.422018 0.531831 0.468893 0.103943 0.550476 -0.106922 0.472872 0.062815 0.336956 -0.191978 -0.501547 0.046394 -0.325930 0.119023 -0.119571 -0.869801 0.675385 -0.225068 0.069315 0.029546 -1.071068 0.381269 0.445320 0.151270 -0.438636 -0.062868 0.651666 0.492216 0.133724 0.394918 -0.351453 0.241755 -0.028887 0.382284 -0.209456 0.140045 0.139277 -0.225960 0.085386 -0.002813 -0.384560 -0.297300 0.168529 -0.408565 0.937533 -0.224722 -0.190524 -0.669328 0.305509 0.355346 -1.477271 -0.619573 0.173498 -0.101852 -0.308175 -0.361296 -0.417054 0.397115 0.084700 0.527015 -0.469233 -0.269038 -0.433108 -0.362991 0.672164 0.317510 0.683573 -0.491624 -0.200683 0.494752 0.014643 -0.221083 0.323651 0.546316 -0.779554 0.021561 0.461447 -0.091175 0.346868 0.449855 0.122338 0.073188 -0.350161 0.308394 -0.259241 0.087589 0.201290 0.459692 0.513682 -0.162526 0.057829 0.591117 -0.040797 0.141708 0.003904 -0.748556 
2918 0.253118 0.106338 -0.040979 -0.506815 -0.342461 -0.567268 0.763071 -1.230477 -0.406154 -0.378965 0.221005 -0.148373 -0.058888 0.272793 -0.254547 0.105945 1.045896 0.071080 0.569556 0.412504 0.858938 -0.376441 -0.276460 0.341342 1.037253 -0.048656 -0.477151 0.338344 0.536200 0.655768 -0.371738 0.518010 -0.683724 -0.254157 0.315137 -0.224654 0.526997 0.484762 -0.126635 -0.205179 -0.202622 -0.472570 0.244878 -0.261706 -0.253606 -0.092828 -0.103844 0.295558 0.156585 0.039482 0.641234 0.113275 -0.769933 0.194557 0.509914 0.323551 0.044727 -0.334794 -0.049022 0.117748 0.337616 -0.299753 -0.225695 0.062848 -0.250461 0.139771 -0.114409 0.052958 0.559661 -0.233485 -0.186267 -0.119729 -0.031497 -0.025934 0.053641 -0.126293 0.435131 0.253284 -0.057758 -0.505903 0.330119 0.091899 -1.273734 -0.417001 -0.326594 0.168199 0.038468 -0.474685 0.352422 0.831241 0.422149 -0.386742 0.348017 0.379119 0.387470 -0.058819 1.022054 -0.137303 0.190944 0.486210 -0.268001 -0.335913 0.231377 -0.589741 0.158027 0.529291 -0.866775 0.162022 -0.490834 0.179742 -0.282278 -0.159880 0.165224 0.199072 -0.212331 -0.523088 -0.094194 0.545035 -0.299402 -0.173457 -0.209609 0.416311 0.001732 -0.467553 0.258343 0.227201 -0.306926 0.087989 
924 0.234948 0.496215 -0.537738 -0.131859 0.400970 0.637988 -0.271275 -0.997358 0.732971 -0.049291 0.678182 -0.784488 0.156438 0.138773 -0.406780 0.553533 0.088717 0.455270 0.650856 -0.259461 -0.362750 0.278514 -0.371406 -0.076616 -0.163474 0.697856 0.291816 -0.457419 0.410124 -0.700406 0.404898 -0.449352 -0.340279 -0.549364 0.083848 -0.980114 -0.496324 0.131268 0.204618 0.277409 0.413454 0.219504 -0.074145 -0.344166 -0.374041 0.543981 -0.242752 -0.182620 -0.117645 0.168991 0.428098 0.451902 0.122021 -0.467653 0.051881 -0.267345 -0.088465 0.229688 0.267413 0.506556 -0.437336 -0.381560 -0.364586 -0.033911 0.697447 0.541471 -0.369378 -0.354718 0.029271 0.073422 -0.656898 0.616896 -0.263829 -0.093809 0.103319 0.045118 -0.272193 0.059504 0.343134 -0.565077 0.501143 0.213050 -0.653061 -0.295706 -0.074300 0.110411 0.395733 0.176604 0.766631 -0.061185 0.018097 0.254248 -0.584633 0.078013 -0.583915 0.066593 -0.092331 -0.008755 0.294665 0.559937 0.034657 0.250663 -0.083762 0.300794 -0.251964 -0.148799 -0.195951 0.180667 0.208989 0.654316 -0.075203 -0.322255 0.706608 0.322769 0.044203 0.165216 0.317136 -0.213690 -0.175863 0.128569 -0.342682 0.033781 0.388151 -0.493004 -0.102625 0.018106 0.416778 0.216353 
380 0.171331 0.140496 -0.685369 -0.063538 -0.427191 0.595032 0.002677 -0.847576 0.116877 -0.501788 0.055951 -0.837741 0.686165 0.140766 -0.930714 0.038809 -0.181929 -0.005055 0.060675 -0.191871 0.019315 -0.278257 -0.113905 -0.215105 0.001667 -0.136383 0.211688 0.147773 -0.324071 0.083462 0.177692 -0.290223 0.048947 -0.521184 0.479165 -0.350176 -0.407694 0.924641 0.321348 -0.052757 0.338801 0.106996 0.258604 -0.142855 -0.916609 -0.091325 -0.130982 0.244993 -0.183240 0.517873 0.794562 -0.413925 0.134754 0.115726 0.075779 0.212221 0.050701 0.329467 0.056802 0.665330 -0.288374 -0.538521 -0.143525 -0.353109 -0.108516 0.096736 -0.033499 -0.277723 -0.338031 -0.192763 -0.307388 -0.022958 -0.202976 0.002725 0.085154 -0.028692 0.120450 0.143113 0.224629 -0.586079 -0.086076 0.568462 -1.143213 -0.067423 -0.095398 -0.312537 -0.318465 -0.136214 0.893319 0.032965 -0.082149 -0.402670 -0.462493 -0.292111 0.009843 0.076211 0.118734 0.262215 -0.127296 -0.151018 -0.127898 0.206820 0.063465 0.485492 -0.015609 0.204262 -0.118974 0.054630 0.145442 -0.117702 -0.275846 0.392045 -0.177985 0.353528 0.178042 -0.305606 -0.022929 0.219727 -0.226269 0.222239 0.113273 0.679419 0.894792 0.440438 -0.381923 -0.006394 -0.359678 0.213103 
1580 -0.102534 0.628549 -0.166974 0.408517 -0.260734 -0.089934 0.197229 -1.075093 0.500585 -0.202666 0.247268 -0.664243 0.247112 -0.123572 0.217387 -0.284432 0.403741 0.372367 0.417304 -0.104485 0.037003 -0.554019 -0.432670 -0.061441 0.460495 -0.517919 0.047651 -0.101104 -0.596135 -0.144530 -0.002629 -0.151709 -0.252244 -0.766197 0.220405 -0.548184 -0.386495 -0.603067 -0.072955 0.748299 0.339744 0.388073 0.128341 0.123967 0.110021 -0.109952 -0.077176 -0.170492 0.614065 0.078638 0.162835 0.034823 0.409357 0.659840 -0.552623 -0.057935 -0.416325 -0.119342 -0.202742 -0.013990 -0.094869 0.888561 0.078129 0.054877 0.325321 -0.409876 -0.339991 0.289936 0.182501 0.111894 0.266021 0.226466 0.053277 0.220776 0.174687 -0.805906 0.091722 0.153933 -0.317264 -0.330310 -0.248518 -0.274372 -1.232126 0.749743 0.675643 0.693288 0.836550 -0.080066 0.661225 0.104984 -0.070709 0.431070 -0.277146 0.394299 0.374056 0.292186 0.608265 0.361925 0.209233 0.057395 0.180918 -0.233340 -0.900659 -0.401530 0.050048 0.495988 0.024678 0.133427 0.265483 0.324984 0.041717 -0.335399 -0.794662 -0.138322 -0.332004 0.547855 0.068648 -0.418420 -0.237398 -0.367832 0.324948 0.378576 -0.033131 0.472003 0.180170 -0.067637 0.041947 0.701813 
6377 0.405973 0.034184 0.274898 -0.010305 0.187743 -0.406950 0.719983 -0.662310 0.330477 0.514838 -0.162535 -0.371329 0.266326 0.174011 0.164333 -0.232099 0.489639 0.066146 0.383803 0.412643 0.049148 0.205647 -0.140338 -0.405931 0.350513 0.328083 0.372674 0.446210 -0.156588 -0.237472 0.155631 -0.642904 -0.143404 -0.176816 0.086793 -0.270641 -0.842360 0.127500 -0.198617 -0.314516 -0.183458 -0.177538 -0.181128 0.475922 -0.909920 0.229896 0.284433 0.102156 0.427389 -0.174543 -0.020929 -0.061461 -0.646866 -0.378225 -0.218798 -0.367799 0.698483 -0.267090 0.534864 -0.362388 0.011008 -0.443780 -0.047398 0.033480 0.205032 -0.372090 0.272059 -0.123248 -0.702953 -0.712818 0.639328 -0.308067 0.423381 -1.049625 -0.048213 -0.932791 1.084177 0.403388 0.154971 0.146495 -0.105981 -0.971996 -1.181063 -0.091742 0.302532 0.026980 0.188520 0.539027 0.835822 0.229782 -0.486116 -0.166178 0.079870 -0.282433 0.451485 0.317404 0.222348 -0.547246 0.547644 -0.353887 0.198098 -0.019647 -0.230904 -0.391065 0.401721 -0.125455 -0.076397 0.573585 0.228963 0.176251 -0.193865 0.262068 -0.223139 0.458612 0.110708 -0.255448 0.236233 -0.381592 -0.090577 -0.055864 -0.584231 -0.078559 -0.113899 -0.387338 -0.954628 0.136205 -0.364470 -0.373920 
1097 0.235637 -0.116168 -0.515461 -0.290161 -0.468249 0.217013 0.114505 -1.060902 0.945752 0.331634 -0.158747 -0.305938 0.265691 0.679368 -0.253132 0.119459 0.419719 0.026869 0.629560 -0.487262 -0.704554 -0.088534 -0.671885 0.016840 -0.024512 -0.551558 -0.017291 0.575896 0.038640 0.306953 0.167534 -0.318860 0.288770 0.173905 -0.275374 0.031669 0.616976 -0.009312 -0.462279 0.540311 0.094526 0.180895 -0.318130 -0.016333 0.050258 0.138854 -0.273954 0.138639 0.015079 0.292376 0.439155 0.047227 -0.593359 -0.191281 0.175625 -0.333284 -0.009723 -0.301701 0.795000 0.493968 -0.713389 0.734633 0.012806 0.131142 0.891063 0.716764 -0.345174 -0.315619 0.120749 0.292149 -0.211306 0.414069 0.006430 -0.295361 -0.057673 -0.259428 0.087538 -0.245503 0.454191 -0.575154 0.286831 0.677992 -1.392170 0.329068 -0.653454 -0.461006 -0.274728 0.114969 0.402960 -0.198984 -0.033264 0.034991 0.171939 0.364197 0.034428 -0.046228 0.420236 -0.291727 0.081165 0.294197 0.085730 0.251347 -0.629547 0.958409 -0.157632 0.019163 -0.194524 -0.101397 0.020881 0.205276 0.495800 -0.502626 -0.667993 0.594574 0.309940 0.327507 -0.027894 0.387798 -0.706558 0.333991 -0.608159 -0.525183 0.313083 -0.715553 0.855838 -0.001634 -0.635699 -0.097352 
1222 -0.048256 0.532522 -0.143132 -0.180959 0.299016 -0.211659 -0.014642 -1.287643 0.536191 0.653672 -0.544063 -0.005649 0.215773 0.302411 0.203520 0.328005 -0.186358 0.653923 0.575917 -0.770050 -0.260022 0.099796 -0.348065 -0.304322 0.160689 -0.765532 -0.013037 -0.140225 -0.151671 -0.184306 -0.073600 -0.733717 -0.157051 -0.068974 0.077866 0.131480 0.543120 0.139550 -0.304158 0.118672 0.135329 0.036377 0.681936 -0.013676 0.488631 0.091015 0.318876 -0.344648 -0.179113 0.140806 0.170227 0.391279 -0.331068 0.095749 0.068022 -0.215157 0.129014 -0.141813 0.046108 0.176793 -0.050951 0.319303 0.150068 -0.086707 0.357315 0.107898 -0.368990 0.766187 -0.323600 -0.155069 -0.001840 -0.173628 -0.507930 -0.526569 -0.309877 0.236627 0.080406 0.695420 0.413664 -0.336948 0.073028 0.082185 -1.488490 0.564515 0.431789 -0.240274 0.563885 0.155244 0.814098 0.218385 -0.136776 -0.565267 -0.131303 0.048072 -0.396528 -0.227486 0.067665 0.661966 0.013765 0.341072 -0.187541 -0.498783 -0.411671 0.053654 -0.100980 -0.627636 -0.085633 0.175488 -0.054544 -0.070001 -0.278392 -0.102306 -0.378318 0.132611 0.232447 -0.210376 0.623244 0.261270 0.173603 0.143863 0.231613 -0.443960 0.248587 0.298485 0.220092 0.060702 0.221786 0.033828 
592 -0.050883 -0.023709 0.210885 0.029784 -0.228272 0.607687 -0.071295 -1.200761 -0.039294 -0.296898 -0.147727 -0.541708 0.579734 0.848127 -0.229777 -0.473276 -0.540494 0.119563 0.298249 0.372952 -0.839303 0.339828 -0.196337 0.245069 -0.967123 -0.705493 0.364186 0.185714 -0.314253 -0.208887 -0.131608 0.553585 0.100714 -0.514751 0.022290 -0.261851 -0.180440 -0.012717 -0.150701 0.094173 -0.004669 -0.106469 -0.395088 -0.329538 0.319470 -0.075465 -0.021044 0.182373 0.333088 0.393601 0.788041 0.250407 -0.225354 0.503184 -0.149536 0.152387 0.255219 -0.287038 0.410036 0.112243 -0.229578 -0.123113 0.138801 0.073175 0.009344 0.376150 0.165100 -0.140992 -0.199887 -0.660526 -0.401229 -0.201545 -0.569282 -0.186672 -0.551726 0.531781 0.153240 0.052815 0.146357 -0.849843 0.172891 0.520839 -1.644704 0.391738 -0.360084 0.544354 -0.507829 0.105859 0.788242 0.619265 0.056863 0.353181 -0.473504 0.209002 -0.813099 0.276493 0.022546 0.120566 0.858345 0.164121 0.117610 0.537276 0.377524 0.165599 -0.058806 0.024145 -0.280126 -0.203240 0.094974 0.152225 -0.099027 -0.093241 0.138697 0.451794 -0.257450 0.012696 -0.247542 0.509413 -0.442310 0.119196 -0.182497 0.074326 0.440341 0.466355 0.009766 -0.130692 -0.075570 -0.238554 
4886 0.474701 0.499439 0.114843 -0.700741 -0.636177 -0.218908 -0.633603 -0.331121 -0.339387 -0.053467 -0.608915 -0.512963 0.095599 0.162364 0.177744 0.183080 0.422513 0.736727 0.778017 0.454108 -0.699657 -0.468477 -0.494353 -0.316588 0.329444 0.663633 0.166602 0.084342 0.782228 0.203186 -0.565097 -0.015406 -0.334733 -0.582672 0.279119 -0.775868 0.139220 0.426990 0.291734 0.311119 -0.310528 0.295645 0.670436 0.136641 -0.306804 0.318024 0.553311 -0.410106 0.196537 -0.419642 -0.155361 0.109053 0.289952 0.083367 0.242896 0.131300 0.137344 -0.104566 0.514857 0.349771 -0.380174 -0.066776 0.376568 -0.216447 -0.254687 0.403616 0.334484 -0.350880 0.604782 -0.208700 0.533137 -0.106410 0.095230 -0.934151 -0.007202 0.002504 1.626512 -0.818680 0.558724 0.140240 0.237097 -0.492295 -1.735225 0.337608 -0.218386 0.068412 0.149015 -0.159726 -0.189114 0.219455 0.004314 -0.124420 0.232132 0.116371 -0.264862 -0.618014 -0.628669 0.020184 -0.355863 -0.176800 0.195519 -0.078658 -0.220734 -0.304956 -0.198591 -0.682779 -0.247854 0.054835 0.219788 -0.292423 -0.090724 0.076191 -0.318241 0.197850 0.040435 -0.032642 0.349759 -0.007435 -0.234616 -0.343808 0.042878 0.295948 0.478456 -0.286184 0.311374 -0.114755 -0.723758 -0.886110 
